<?xml version="1.0"?>
<opencv_storage>
<opencv_ml_svm>
  <format>3</format>
  <svmType>C_SVC</svmType>
  <kernel>
    <type>LINEAR</type></kernel>
  <C>2.5000000000000000e+00</C>
  <term_criteria><epsilon>9.9999999999999995e-07</epsilon>
    <iterations>100</iterations></term_criteria>
  <var_count>100</var_count>
  <class_count>15</class_count>
  <class_labels type_id="opencv-matrix">
    <rows>15</rows>
    <cols>1</cols>
    <dt>i</dt>
    <data>
      0 1 2 3 4 5 6 7 8 9 10 11 12 13 14</data></class_labels>
  <sv_total>105</sv_total>
  <support_vectors>
    <_>
      2.52251267e+00 1.54152915e-01 -1.41706026e+00 -1.11559403e+00
      -9.94302034e-01 -3.25136408e-02 7.13735744e-02 -3.58067483e-01
      1.20076990e+00 -5.26588440e-01 -6.93294108e-01 -1.07023335e+00
      -4.97161858e-02 -1.06378901e+00 2.72220612e+00 1.23005188e+00
      1.56297505e-01 -5.45547791e-02 -2.21699142e+00 1.95298076e-01
      -2.41917342e-01 -1.02883852e+00 -1.06883669e+00 -4.43069458e-01
      -2.03465238e-01 -5.11247814e-01 -1.87247381e-01 -3.32000911e-01
      -1.39034674e-01 1.00579941e+00 -3.26967180e-01 -3.73553991e-01
      1.47596824e+00 7.93258920e-02 -4.22915965e-01 -1.36402059e+00
      -7.12182820e-01 1.80626705e-01 -1.44848868e-01 -6.58632457e-01
      2.95253336e-01 -1.19345129e-01 5.98598540e-01 2.69444561e+00
      5.05488694e-01 1.78087461e+00 -4.37615365e-01 6.27174526e-02
      -1.68766156e-01 5.19577026e-01 5.87016881e-01 3.56330983e-02
      9.09559429e-02 5.05864918e-01 1.83084290e-02 -1.74316928e-01
      -6.55260503e-01 -1.26171207e+00 1.97051410e-02 9.88475233e-02
      -1.33967686e+00 -2.98228711e-01 2.68388331e-01 -7.45770931e-01
      -8.36500287e-01 9.04132724e-02 9.34249535e-02 2.26794457e+00
      -6.86787590e-02 -4.81053680e-01 9.79589447e-02 -1.48839382e-02
      1.19728900e-01 6.68228939e-02 -2.83383161e-01 7.50418976e-02
      -8.55041981e-01 6.81236982e-01 3.23829621e-01 4.64924872e-01
      -8.46875757e-02 5.60770273e-01 4.44623709e-01 1.50541002e-02
      6.10811591e-01 -1.70121700e-01 1.43917108e+00 -6.67006612e-01
      3.26656401e-01 -1.52114916e+00 -3.22382122e-01 8.27009678e-01
      1.03292838e-01 -1.39873177e-01 1.74590066e-01 -2.97538042e-01
      -1.08303463e+00 1.60265040e+00 2.78171957e-01 3.73255238e-02</_>
    <_>
      3.02977133e+00 2.17881709e-01 -1.99944770e+00 -3.76505047e-01
      1.28215015e+00 3.49922746e-01 -2.35403687e-01 1.22881675e+00
      5.28085566e+00 8.09671104e-01 -4.74985123e+00 -2.89931846e+00
      5.81562519e-02 1.37490988e+00 7.06563234e-01 1.12626207e+00
      -2.23858356e-01 -2.66257286e-01 -1.46764174e-01 -1.45017350e+00
      -2.41906926e-01 -6.96605384e-01 -3.31920892e-01 9.29380115e-03
      1.65922666e+00 4.11991024e+00 -3.19917345e+00 -3.41400218e+00
      -5.67264974e-01 1.75397635e+00 6.04152155e+00 4.39447731e-01
      1.16885448e+00 -4.41733114e-02 -9.43614781e-01 5.08035088e+00
      -1.28789997e+00 -4.23152864e-01 -7.07281053e-01 6.63665593e-01
      -4.15551245e-01 -1.95559275e+00 -9.27439034e-01 2.11689305e+00
      -8.71218085e-01 -2.47154546e+00 1.03099930e+00 7.43653625e-02
      -2.64163285e-01 1.95575923e-01 -7.75784254e-01 -2.47071236e-01
      5.43784440e-01 8.51332322e-02 -6.01471722e-01 -1.90690649e+00
      2.34356821e-01 4.92765337e-01 6.96332231e-02 4.88279670e-01
      -3.86285520e+00 -6.77781105e-01 1.58910549e+00 -9.87882555e-01
      4.00821060e-01 -2.82925159e-01 1.15541466e-01 8.37002814e-01
      3.45204055e-01 2.32905120e-01 -3.24486554e-01 -1.66265711e-01
      1.15717202e-01 -4.99509901e-01 5.89157879e-01 -1.76254797e+00
      2.01726508e+00 -2.23829341e+00 -8.90202999e-01 -2.59543717e-01
      -9.83803213e-01 9.47110295e-01 5.76474190e-01 -1.03453243e+00
      -4.91568118e-01 1.48645151e+00 -1.73149121e+00 2.79597729e-01
      3.74810010e-01 5.59429288e-01 -1.06821537e+00 -4.83320475e-01
      4.72524762e-02 -1.20825887e+00 -1.19117595e-01 -5.90978444e-01
      1.11920750e+00 1.54296577e+00 -5.66444755e-01 -3.76694053e-02</_>
    <_>
      2.43494415e+00 3.11246604e-01 -1.23555279e+00 -3.58822227e-01
      -2.52365232e+00 9.24161851e-01 -2.22701892e-01 -1.42946690e-01
      1.25842202e+00 -9.58655596e-01 -3.34700882e-01 -3.63522500e-01
      2.90628206e-02 -3.08315843e-01 9.33136642e-01 1.08621204e+00
      8.39915499e-02 -3.57924327e-02 -2.46042132e+00 -6.97657645e-01
      -3.66769105e-01 -1.28720427e+00 -7.40213871e-01 -1.30959523e+00
      -1.04439294e+00 9.80678648e-02 1.05282938e+00 1.71757117e-01
      -8.11739340e-02 7.46761680e-01 -5.18146809e-03 -3.12593222e-01
      7.24739730e-01 1.73951328e-01 -9.03519690e-02 -1.41579497e+00
      -4.53604728e-01 5.99067360e-02 -5.81070960e-01 -1.15935576e+00
      3.23434740e-01 1.29155707e+00 5.27371824e-01 2.10918832e+00
      2.30981708e-01 4.65097100e-01 -1.94779858e-01 7.14827999e-02
      -1.88928813e-01 2.76663080e-02 1.40822187e-01 5.89779541e-02
      -5.23082256e-01 2.60261416e-01 3.83605957e-01 2.85234302e-01
      -2.88361013e-01 -8.16609263e-01 2.50327047e-02 3.48008066e-01
      2.59007007e-01 -2.49248609e-01 6.29786998e-02 -9.03774381e-01
      -4.59134489e-01 4.69901502e-01 -1.31021729e-02 1.30724216e+00
      2.51864284e-01 1.09423131e-01 5.31666540e-02 1.12843953e-01
      8.19648355e-02 3.58980000e-01 -2.80135930e-01 -3.06215346e-01
      -7.31088817e-01 4.99344260e-01 4.18434769e-01 2.87472010e-01
      -1.29789189e-01 4.75889176e-01 5.64286470e-01 -4.90736961e-02
      1.00954437e+00 -5.28818250e-01 1.58885586e+00 -3.28982770e-01
      2.01284125e-01 -7.69355893e-01 -3.04747969e-01 4.27264869e-01
      6.39947727e-02 -4.47686523e-01 -3.10174394e-02 9.64296013e-02
      -1.12231302e+00 1.36269128e+00 4.79607642e-01 -2.40942147e-02</_>
    <_>
      1.60417211e+00 1.74741283e-01 -3.90103936e-01 -1.45099178e-01
      -5.92769504e-01 5.23036003e-01 6.35517389e-02 6.90300670e-03
      5.66822946e-01 -3.72404426e-01 2.32170261e-02 -6.13751054e-01
      1.01963412e-02 2.66394056e-02 2.17639104e-01 1.34818196e-01
      -1.45774186e-01 -3.44024017e-03 -5.18524826e-01 -3.59866470e-01
      -3.42462420e-01 7.26748183e-02 -4.01704669e-01 -1.09834597e-01
      -4.19147052e-02 -8.06443989e-02 1.13927454e-01 -4.57784116e-01
      -3.39156715e-03 4.36381698e-01 1.14785886e+00 -1.47855476e-01
      4.21193004e-01 5.99431545e-02 -8.12610313e-02 -1.29091203e-01
      -1.81402430e-01 -1.80289634e-02 -9.59179550e-02 -1.13198318e-01
      -1.29337192e-01 3.90116125e-01 5.55648394e-02 3.87125105e-01
      1.07137799e-01 -2.90263951e-01 3.93182188e-01 1.42934674e-03
      -1.20846674e-01 -1.67541176e-01 -3.70839648e-02 1.65534317e-01
      -5.08153811e-02 -1.63403019e-01 6.86909556e-02 1.73458800e-01
      -2.14600503e-01 -3.76865327e-01 6.22056145e-03 1.39751405e-01
      9.03741643e-02 -2.73608804e-01 -1.74738497e-01 2.28733458e-02
      -1.65392846e-01 1.41415760e-01 5.57283647e-02 5.75009286e-01
      1.85598940e-01 1.29439473e-01 -2.19676886e-02 7.12180063e-02
      2.02318896e-02 1.04315378e-01 -3.37500632e-01 -7.01902509e-02
      -6.48793519e-01 1.01272173e-01 -9.27851126e-02 9.54365134e-02
      -1.00448735e-01 8.29519778e-02 -2.13890150e-02 -7.94444829e-02
      3.84638757e-01 -5.31427190e-02 5.76346219e-01 -1.93244740e-01
      9.26208571e-02 -3.47342700e-01 -2.14621142e-01 -6.42165765e-02
      3.12784351e-02 -1.32907569e-01 -1.69542924e-01 -5.40631684e-03
      -5.51770210e-01 2.36932918e-01 8.44300836e-02 4.13977914e-02</_>
    <_>
      7.57641375e-01 1.24316953e-01 -5.88595808e-01 -2.27323040e-01
      -1.49636650e+00 1.31590331e+00 -5.69479875e-02 -1.87421534e-02
      -1.40080303e-01 -6.16088808e-01 3.86307687e-02 2.42525399e-01
      -9.90044624e-02 2.48800904e-01 4.92175817e-01 2.80381083e-01
      -1.53460726e-01 -1.14937862e-02 -8.22207510e-01 6.53184116e-01
      2.38357961e-01 6.23757094e-02 -8.19042623e-01 5.82566023e-01
      4.02171642e-01 -1.11153960e-01 2.10645050e-01 -1.71469301e-01
      -1.37114331e-01 -2.17534840e-01 1.17369914e+00 -3.34991366e-01
      -1.71437487e-01 2.12343857e-01 -1.32523447e-01 9.17150855e-01
      -4.50430125e-01 1.77750796e-01 2.09261000e-01 -5.10820746e-01
      -7.95709193e-01 1.00042105e+00 2.92879045e-01 9.65232372e-01
      3.91090721e-01 -1.23421252e-01 2.73975730e-01 -2.23293379e-02
      -5.36137402e-01 -4.95309204e-01 -5.03973007e-01 1.93752676e-01
      -1.65865034e-01 -6.48060322e-01 5.52312136e-02 1.67711407e-01
      5.78453839e-01 -5.93948364e-01 -1.93441268e-02 2.07699522e-01
      -9.06259269e-02 -3.37506860e-01 -3.87745649e-01 -2.16638565e-01
      -7.06978440e-01 2.18405277e-01 2.55572461e-02 1.36158198e-01
      6.16749406e-01 2.59605259e-01 3.69643643e-02 1.93113554e-02
      -3.21729362e-01 3.03216338e-01 -7.60666281e-02 -2.24534780e-01
      1.13475859e+00 -9.70791757e-01 5.48193872e-01 -3.94564390e-01
      -3.84365730e-02 8.90479460e-02 4.16873723e-01 2.98874415e-02
      2.95109153e-01 -8.71200919e-01 2.93006212e-01 -3.90947223e-01
      -1.54138170e-02 -4.18137282e-01 -2.36781746e-01 -1.22896679e-01
      2.60937866e-02 -2.76705027e-01 -1.05828747e-01 5.61738759e-02
      -9.59926546e-01 8.38033080e-01 5.46319962e-01 -1.41024147e-03</_>
    <_>
      4.67943162e-01 3.16466898e-01 1.36247471e-01 4.41141814e-01
      -1.49824107e+00 5.04899204e-01 -1.08269462e-02 2.68266350e-01
      2.43405849e-01 -3.64387155e-01 4.39543754e-01 -7.66767323e-01
      6.55295849e-02 8.25856552e-02 -8.57243955e-01 -1.47182420e-01
      1.91405788e-02 9.46971122e-03 -1.76839978e-01 -7.78426453e-02
      -9.56819504e-02 1.15122862e-01 -1.05650902e+00 -1.67621344e-01
      1.55119509e-01 -3.13387305e-01 4.82121497e-01 -4.15081471e-01
      -2.41577365e-02 7.69517478e-03 3.26497227e-01 5.45989759e-02
      2.69856662e-01 4.24666554e-02 5.77477692e-03 8.22652638e-01
      -2.79224724e-01 3.97877134e-02 -8.07438325e-03 -2.82634974e-01
      -1.15841970e-01 7.16350734e-01 -1.92502290e-01 -4.07024324e-01
      3.32593411e-01 -2.97243387e-01 4.19578880e-01 2.71746218e-02
      -3.23925555e-01 -6.26196206e-01 1.31461337e-01 -1.54289585e-02
      -1.82753503e-01 4.57428321e-02 9.23322961e-02 -8.31576362e-02
      5.55494308e-01 -4.68238264e-01 8.79668519e-02 3.50611478e-01
      8.41711938e-01 -1.06154270e-01 -2.81776756e-01 1.31133616e-01
      -2.45414346e-01 2.06483379e-01 8.15824643e-02 -2.64967322e-01
      5.18484056e-01 2.06011042e-01 5.02429018e-03 4.28792499e-02
      -8.11641514e-02 1.41657190e-02 5.52402101e-02 -3.03816646e-01
      4.56168771e-01 4.83484715e-02 3.65503877e-01 -1.65426880e-01
      2.67475378e-02 -2.15892687e-01 -1.01387501e-01 1.53523115e-02
      5.08125186e-01 -3.15325648e-01 6.16476238e-01 -2.17782602e-01
      -1.01194605e-01 5.57382777e-02 -4.21846718e-01 -4.57232073e-02
      3.72999944e-02 -2.69132525e-01 -1.12415291e-02 7.23566711e-02
      -7.75460303e-01 1.11508347e-01 6.49876356e-01 3.58661860e-02</_>
    <_>
      4.28066671e-01 2.94969697e-02 -1.19105354e-01 5.15897460e-02
      -2.80184448e-01 1.76521659e-01 -5.90659268e-02 -5.32345753e-03
      1.16562165e-01 -1.70978606e-01 4.41512354e-02 -1.56543255e-01
      -3.88724282e-02 2.36862376e-01 -2.47749299e-01 -3.35868925e-01
      2.66831871e-02 -2.79937871e-03 -1.12082340e-01 -3.38221759e-01
      -3.38107854e-01 2.61863887e-01 -3.80414784e-01 -1.22582093e-01
      7.51665384e-02 1.36752799e-01 9.98640060e-02 -3.15647751e-01
      -6.66326955e-02 -2.36409649e-01 2.90861130e-01 2.53164228e-02
      -1.56462044e-01 2.61838753e-02 -3.93581428e-02 4.69374478e-01
      -1.74291432e-01 -2.18274742e-02 3.54966894e-02 -9.67579931e-02
      -2.34000403e-02 1.48383215e-01 4.94528636e-02 -2.75184959e-01
      8.59692469e-02 -9.67985839e-02 5.46495914e-01 8.88601877e-03
      -1.48100078e-01 -3.21144670e-01 -3.60825239e-03 8.09545591e-02
      -8.12828541e-02 1.45235032e-01 3.95506993e-02 5.86533267e-03
      -5.19538336e-02 -1.71354003e-02 9.20884311e-03 2.33540386e-01
      8.02462101e-02 -7.13012069e-02 2.40224283e-02 -1.41024724e-01
      -1.07250325e-01 2.36182258e-01 -1.53890057e-02 -1.02352381e-01
      1.42722592e-01 1.24476738e-01 1.93174405e-03 -4.36939672e-02
      -1.75908282e-02 -7.22892731e-02 2.65291125e-01 -4.85019118e-04
      -6.52774349e-02 -1.57282934e-01 3.25585037e-01 1.52076647e-01
      -1.31332844e-01 1.54698687e-02 -5.48612103e-02 -1.60041094e-01
      1.58189356e-01 1.39914542e-01 3.25535208e-01 1.38440793e-02
      -2.74792463e-02 1.23417191e-01 -1.55708402e-01 -2.19601300e-02
      6.21566921e-02 -2.15257600e-01 -3.85478176e-02 -7.67148212e-02
      -1.52517095e-01 -1.12248085e-01 6.07047021e-01 9.20369849e-02</_>
    <_>
      1.59783947e+00 -5.29952168e-01 -9.00536478e-01 -1.66435614e-01
      4.51383770e-01 -8.33183527e-01 -2.31168196e-01 6.14463866e-01
      2.77737546e+00 3.86008829e-01 -1.12906027e+00 -5.22123277e-01
      3.45245097e-03 2.63314486e-01 3.98332566e-01 8.53339493e-01
      7.17067197e-02 -5.59398271e-02 -6.19248450e-01 -7.40835667e-01
      3.35289575e-02 -9.50846374e-02 -6.38178706e-01 -1.33006251e+00
      -4.19837654e-01 1.50648904e+00 -1.26800406e+00 4.49846566e-01
      -3.20318371e-01 1.57463416e-01 1.40876234e+00 3.06741714e-01
      1.02595103e+00 -2.88240671e-01 -7.99305379e-01 -1.49347663e-01
      -7.13288784e-01 -6.91535175e-02 -4.84805517e-02 4.86274987e-01
      1.87370315e-01 -6.73410177e-01 -1.31498262e-01 2.04383945e+00
      -3.09314013e-01 4.13353860e-01 -9.17646706e-01 4.55247425e-02
      -5.21078855e-02 2.00492114e-01 -9.10305306e-02 -7.37596154e-02
      1.85350165e-01 1.04931258e-02 -3.21670711e-01 -3.35280836e-01
      -3.78078341e-01 -4.18023258e-01 -5.02809957e-02 -3.34808439e-01
      -4.29994702e-01 -3.48953903e-01 1.03490472e+00 -2.86274046e-01
      -5.32555357e-02 1.43832982e-01 5.58935478e-02 1.21499074e+00
      -4.29870397e-01 -3.85082960e-01 -1.35286018e-01 -1.23411372e-01
      8.65098462e-02 -3.23769003e-01 -3.03646237e-01 -3.93816292e-01
      -1.32040000e+00 -8.93904865e-02 -6.25300467e-01 1.30524755e-01
      -3.36706638e-01 1.18153855e-01 1.84010878e-01 4.46885750e-02
      4.86367106e-01 8.83089483e-01 3.58260751e-01 -8.28745738e-02
      2.42054984e-01 -1.89557314e-01 -4.65951562e-01 4.74504054e-01
      6.13769516e-02 9.88704488e-02 3.66174206e-02 -2.18984574e-01
      1.32737756e-01 1.50828207e+00 -6.25416338e-01 -5.17314076e-02</_>
    <_>
      7.41341531e-01 2.88613021e-01 -2.91059285e-01 5.84576547e-01
      -1.40635359e+00 2.78042201e-02 5.39509989e-02 -3.62898022e-01
      2.00612754e-01 -3.38585705e-01 1.25266898e+00 -9.39806700e-01
      3.05234287e-02 2.81965397e-02 -4.91665959e-01 -3.92621875e-01
      -2.38518313e-01 2.47823391e-02 -4.25247461e-01 4.07413721e-01
      -3.31903458e-01 -2.36477852e-01 -8.39613974e-01 -5.29824078e-01
      1.57110721e-01 1.33368075e+00 7.26137161e-01 -7.33618617e-01
      -1.39479488e-01 -3.86164069e-01 7.31922388e-01 -3.40843387e-02
      3.25356960e-01 1.59620687e-01 -2.03671426e-01 5.94249964e-01
      -1.93748012e-01 2.25878894e-01 -4.67494100e-01 -2.90574402e-01
      -1.92262635e-01 5.09632289e-01 -1.23190932e-01 -5.42421460e-01
      6.89094067e-01 2.25696012e-01 4.78053451e-01 -1.39808416e-01
      -4.14319009e-01 -6.11052155e-01 -2.40795035e-02 1.71596661e-01
      -2.99615026e-01 2.77241856e-01 1.34483203e-01 4.05385047e-01
      -4.23090309e-01 2.67750800e-01 4.99212742e-02 4.57105726e-01
      1.05875075e+00 -2.34109908e-01 -1.38658047e-01 -2.09277973e-01
      -4.33242708e-01 1.91657454e-01 -2.10972149e-02 -2.41325885e-01
      3.59707773e-01 5.20111620e-01 -7.99643546e-02 -7.80588761e-02
      1.69374340e-03 2.90622190e-03 6.10903084e-01 -2.38995299e-01
      -8.29063416e-01 -3.48634481e-01 6.10725224e-01 -9.38927010e-02
      -1.56774342e-01 -3.89277667e-01 9.18537453e-02 -9.78720039e-02
      6.83147490e-01 2.73096353e-01 9.27996457e-01 3.33262351e-03
      4.13795896e-02 -9.46842432e-02 -7.59850800e-01 -8.46917257e-02
      6.47694543e-02 -3.22723985e-01 -3.32547934e-03 -3.14730674e-01
      -1.59188837e-01 -5.03416955e-01 7.89223254e-01 8.44510794e-02</_>
    <_>
      1.82771075e+00 2.58040994e-01 -1.11384785e+00 -6.49755299e-01
      -2.63180912e-01 -8.44344795e-02 -1.43136442e-01 3.13582808e-01
      2.03318095e+00 -5.34139037e-01 -1.55292428e+00 -6.08885467e-01
      -2.88159307e-02 3.81730162e-02 8.19350779e-01 1.19174290e+00
      6.54385686e-02 -8.10913965e-02 -5.53397655e-01 -7.84902036e-01
      3.75868455e-02 2.28657678e-01 -3.27362895e-01 -1.00560260e+00
      -2.28505686e-01 9.29791570e-01 -1.01781344e+00 -1.19113989e-01
      -3.70169401e-01 7.52308369e-01 2.11581498e-01 -7.85165280e-02
      1.08477437e+00 5.86281121e-02 -4.49658006e-01 -4.79946733e-01
      -5.96683025e-01 2.05607573e-03 2.28809267e-01 -3.19521397e-01
      2.92237341e-01 -3.32876474e-01 -8.70749056e-02 2.41043591e+00
      -3.65966827e-01 -1.62970468e-01 -7.13603973e-01 1.03051312e-01
      1.23231813e-01 2.88691550e-01 2.01217070e-01 4.24822532e-02
      1.26636224e-02 1.24599636e-01 -9.54108909e-02 -4.05352592e-01
      -6.39646173e-01 -8.92616093e-01 3.74047831e-02 3.46939340e-02
      -8.23045969e-01 -1.69429153e-01 8.12312245e-01 -2.43618593e-01
      -1.75334126e-01 1.76210865e-01 9.31286812e-02 1.67908835e+00
      -1.81755066e-01 -3.33010375e-01 3.84959206e-02 -2.31717974e-02
      1.65938124e-01 -1.34014115e-01 -5.92943311e-01 -3.63101482e-01
      -4.81749177e-02 -2.98439533e-01 -3.11381936e-01 3.50577176e-01
      -3.83923203e-01 6.43392801e-01 4.55880255e-01 -3.45995098e-01
      3.95481318e-01 2.45221794e-01 6.31447136e-02 -4.42400482e-03
      3.23508143e-01 -7.73708999e-01 -2.67326981e-01 2.78117061e-01
      3.05161867e-02 -2.82856286e-01 -4.08315696e-02 1.02596641e-01
      -3.22863251e-01 1.64594150e+00 8.92361277e-04 -4.62948754e-02</_>
    <_>
      2.29008794e+00 4.57555465e-02 -6.81829512e-01 -2.87803888e-01
      -1.34496140e+00 1.08157980e+00 -1.55275881e-01 5.65927088e-01
      1.42591882e+00 -2.53461570e-01 -9.33572650e-01 -1.02921259e+00
      -1.35284811e-02 4.34540302e-01 -2.29617413e-02 6.70408383e-02
      -3.52103561e-01 -7.53036514e-02 -4.96838987e-01 -2.91465580e-01
      -1.36587888e-01 3.29109393e-02 -8.22676122e-01 -8.25776309e-02
      6.60369515e-01 1.78816271e+00 1.27794832e-01 -1.97593045e+00
      -1.09153017e-01 5.19469142e-01 2.69174457e+00 9.52012166e-02
      1.04791796e+00 6.95025781e-04 -2.65023559e-01 2.86027837e+00
      -3.33952129e-01 -1.79318935e-01 -3.77249032e-01 -2.23958820e-01
      -8.73398334e-02 -4.68046486e-01 -4.39001441e-01 6.98668540e-01
      2.95327872e-01 -2.59459972e-01 6.46760538e-02 -4.81513143e-02
      -2.53017485e-01 -3.81587386e-01 -3.16934526e-01 -1.99758746e-02
      6.55624419e-02 -1.02653317e-01 -8.31332207e-02 -4.06674862e-01
      2.15499550e-01 -2.70534009e-01 -3.70226540e-02 2.17943326e-01
      -6.32248044e-01 -3.99601549e-01 -8.73829611e-03 4.71765138e-02
      -3.09645534e-01 -4.85149212e-02 8.24482962e-02 -2.13924631e-01
      1.96629748e-01 -8.96562636e-02 -2.15973035e-01 -1.08210526e-01
      -4.01303433e-02 -2.14857846e-01 -3.54098707e-01 -4.73841935e-01
      7.91091800e-01 -3.11382145e-01 1.12318181e-01 -3.05208653e-01
      -3.03820729e-01 1.52803093e-01 1.35477453e-01 -2.18363032e-01
      -1.19300164e-01 -2.48158816e-03 8.03236604e-01 -3.56874049e-01
      4.69203480e-03 -2.71316022e-01 -4.69672740e-01 -3.34379762e-01
      1.75961442e-02 -5.57636440e-01 -1.71813667e-01 -9.15434808e-02
      1.38294727e-01 1.08517751e-01 3.81942093e-01 -2.37830114e-02</_>
    <_>
      1.68942869e+00 -2.03984417e-02 -8.09639275e-01 -7.56592095e-01
      -8.88901949e-01 4.53136653e-01 -9.39150229e-02 6.95959330e-01
      1.88732493e+00 -4.37624365e-01 -6.78134501e-01 -3.42419088e-01
      -1.14054143e-01 2.02204615e-01 1.07898116e+00 8.67101312e-01
      -1.03813790e-01 7.38396868e-02 -1.15584934e+00 -5.60506225e-01
      -1.26236752e-01 -6.31263375e-01 -4.21729863e-01 -1.01872887e-02
      3.76650929e-01 7.84097314e-01 -4.50299144e-01 -5.73505342e-01
      -1.40756622e-01 6.39203608e-01 2.12300897e+00 -1.02679931e-01
      7.18067586e-01 -7.92547986e-02 -5.33428431e-01 1.17867959e+00
      -4.02863026e-01 1.14712588e-01 -5.54385662e-01 -5.88996947e-01
      -3.92199397e-01 1.02009140e-01 2.77552754e-02 1.60647833e+00
      1.75408453e-01 1.19551839e-02 5.90418935e-01 -1.44299511e-02
      -1.22496806e-01 -3.13315600e-01 -5.35470665e-01 1.17662512e-01
      -1.58945933e-01 -2.96130210e-01 2.30258241e-01 1.90943092e-01
      -1.84364527e-01 -1.00849664e+00 -7.89239854e-02 -9.96629223e-02
      -3.91532838e-01 -2.42456034e-01 1.28771156e-01 -6.73903883e-01
      -2.88407922e-01 1.84600651e-01 2.46175807e-02 3.08923215e-01
      3.29964966e-01 -3.03490400e-01 4.30162437e-02 -5.17263450e-02
      -1.01811640e-01 1.07787531e-02 -7.98995078e-01 -5.43157399e-01
      3.19888592e-01 -6.62092745e-01 -1.96801409e-01 -2.28117093e-01
      -1.47446260e-01 4.62898731e-01 3.45957220e-01 -2.69162711e-02
      5.40245771e-01 -1.34056389e-01 1.12018120e+00 -3.63520175e-01
      1.81713134e-01 -1.52272210e-01 -6.30757153e-01 2.04375070e-02
      6.25851229e-02 -5.50770879e-01 -1.98895812e-01 -2.56522357e-01
      -3.96044105e-01 8.06724131e-01 2.66804039e-01 2.81729773e-02</_>
    <_>
      2.53052473e+00 3.24638337e-01 -8.95432949e-01 4.49218869e-01
      -1.34575701e+00 3.16653222e-01 1.16223007e-01 -2.14919314e-01
      2.73355985e+00 3.29143763e-01 -1.90917507e-01 -2.62748790e+00
      -3.38094346e-02 1.85225949e-01 -1.98422813e+00 4.63024408e-01
      -8.42573419e-02 -1.20910183e-01 -4.39093828e-01 -2.11747217e+00
      -5.89814007e-01 -1.66208312e-01 -1.42701268e+00 -7.82919824e-01
      -1.62131086e-01 2.76615834e+00 1.98515332e+00 -1.84209776e+00
      -6.83382750e-01 5.23913205e-01 -3.77133638e-01 1.89277217e-01
      4.37476039e-01 1.69466197e-01 -6.27958953e-01 2.71517038e-01
      -5.53826332e-01 9.50493440e-02 -2.43306831e-01 4.60194796e-01
      -2.48589948e-01 3.05525064e-01 -2.30565742e-01 1.16015399e+00
      -1.62248194e-01 5.21915793e-01 1.44681227e+00 2.01773620e-03
      -4.77512598e-01 -2.01164901e-01 -1.75951779e-01 -5.22503443e-03
      -4.59715366e-01 2.86350071e-01 -1.21383891e-01 -5.32461345e-01
      -6.53978348e-01 1.17061865e+00 8.68781433e-02 4.09823865e-01
      5.14408469e-01 -7.96983123e-01 6.87611699e-01 -5.85614800e-01
      -3.45333129e-01 -1.07624598e-01 7.78865367e-02 9.30031240e-01
      1.20402381e-01 7.65025437e-01 -1.79248974e-01 -7.92676657e-02
      8.57461095e-02 -4.09908116e-01 9.40031946e-01 -1.06152081e+00
      -5.58445275e-01 -5.69800287e-02 9.20196116e-01 1.28481677e-02
      -1.05358696e+00 -4.70931120e-02 1.35940015e-01 -6.07316554e-01
      6.87352479e-01 4.57007378e-01 1.08580256e+00 5.78905828e-02
      2.64345467e-01 2.70197019e-02 -4.02556688e-01 -3.12823117e-01
      7.09617436e-02 -7.32329309e-01 -1.08354911e-01 -2.04481259e-01
      2.58123636e-01 1.94408044e-01 3.68929803e-01 2.98615973e-02</_>
    <_>
      1.74521053e+00 2.85221767e-02 -4.46681023e-01 -1.36468577e+00
      -1.72160459e+00 9.04174149e-01 -3.09360147e-01 5.07243574e-01
      1.46519232e+00 -9.48477209e-01 -6.17315888e-01 -1.22297490e+00
      -3.05906147e-01 2.32899889e-01 1.51869512e+00 4.86446142e-01
      -1.77458957e-01 -5.22412546e-02 -1.06799233e+00 3.66946042e-01
      -8.36834311e-02 -6.87090829e-02 -8.90550852e-01 -2.54220515e-01
      -5.96155703e-01 1.45925391e+00 3.47833067e-01 -5.96846879e-01
      -5.00042498e-01 8.74696851e-01 1.58155632e+00 -1.54503703e+00
      6.51982009e-01 -6.91935197e-02 -3.18796724e-01 -4.02728736e-01
      -4.79762554e-01 -4.24857857e-03 -5.87657839e-02 -7.32086360e-01
      -5.95313430e-01 9.82332230e-01 1.38911411e-01 1.44656527e+00
      3.83801550e-01 2.85331875e-01 -3.72216642e-01 9.08214077e-02
      -3.04219007e-01 -1.26842886e-01 -3.21262330e-01 7.29751289e-02
      2.60869920e-01 -3.68026882e-01 -3.50494161e-02 -1.54772833e-01
      7.15863556e-02 -4.30510193e-01 -9.22644213e-02 -2.54005671e-01
      -5.04235148e-01 -2.62718588e-01 5.70007801e-01 -3.19935739e-01
      -4.95900810e-01 1.04379736e-01 8.57790653e-03 9.45253313e-01
      5.24727404e-01 1.00588605e-01 4.33250330e-02 3.44831273e-02
      -3.52142066e-01 -4.24795114e-02 -9.92664456e-01 -3.96892101e-01
      1.84653385e-03 -4.63911116e-01 9.38648760e-01 -7.62237841e-03
      -4.42908630e-02 -2.02344596e-01 4.95361149e-01 -4.22538407e-02
      3.43702108e-01 -1.84609115e-01 1.10629976e+00 -2.74018615e-01
      1.00519240e-01 9.44302790e-03 -2.57921040e-01 2.81736493e-01
      7.58831650e-02 -2.79016852e-01 -7.60264918e-02 6.44099936e-02
      -4.88893092e-01 1.03959990e+00 9.01226878e-01 -1.59804206e-02</_>
    <_>
      1.56420484e-01 7.87121505e-02 5.38500547e-01 1.83343410e+00
      2.07370734e+00 7.99111426e-02 -1.31944463e-01 8.71102273e-01
      1.94647396e+00 1.37358105e+00 -2.37121868e+00 -1.51052856e+00
      2.26558357e-01 8.73770654e-01 -1.50508618e+00 -4.29231167e-01
      -3.72816592e-01 -2.17024073e-01 1.82663751e+00 -1.45355666e+00
      -2.11159244e-01 8.21480393e-01 7.59142876e-01 2.71440029e-01
      1.66772258e+00 3.46068382e+00 -2.59197378e+00 -2.27835035e+00
      -3.71169358e-01 2.06386149e-01 3.89900327e+00 2.40171701e-01
      -4.12842214e-01 -1.95811272e-01 -5.41217178e-02 4.10469198e+00
      -3.21625680e-01 -4.84402895e-01 -5.49807668e-01 1.24951673e+00
      -5.62132955e-01 -9.10412312e-01 -1.06673074e+00 -5.84256411e-01
      -1.09093785e+00 -3.78621340e+00 1.17858887e+00 -2.56867111e-02
      5.54035604e-02 -2.85798877e-01 -1.09445834e+00 -2.21451625e-01
      3.51023287e-01 -2.53585696e-01 -5.57456076e-01 -1.50408912e+00
      5.36710858e-01 2.36268568e+00 4.92357276e-02 6.50389135e-01
      -1.37426925e+00 -1.61251649e-01 5.96348941e-01 -4.32240404e-03
      1.11455286e+00 -3.43879104e-01 -6.06026268e-03 -1.61786771e+00
      3.22746634e-01 6.16637170e-01 -2.90851206e-01 -1.00212678e-01
      -3.71554010e-02 -2.10707679e-01 1.75987446e+00 -1.51526725e+00
      1.68877482e+00 -2.62633657e+00 -1.17952609e+00 -7.57003188e-01
      -4.26665038e-01 4.16005701e-01 -1.01282895e-01 -6.89878404e-01
      -9.22522068e-01 1.00552297e+00 -2.37407517e+00 9.07762945e-01
      1.78896617e-02 2.27598023e+00 -7.06449389e-01 -9.46329892e-01
      -4.62431088e-02 -9.02017713e-01 -2.47068018e-01 -1.37564272e-01
      1.39966393e+00 1.58706024e-01 -7.98193753e-01 -9.46725309e-02</_>
    <_>
      -1.24423511e-01 1.78573802e-01 5.00245631e-01 7.59292096e-02
      -2.21745744e-01 3.11123133e-01 -1.67483732e-01 1.09227179e-02
      -1.58130661e-01 5.73195815e-01 2.18810469e-01 3.93020570e-01
      1.69596449e-01 1.28203630e-01 -8.39174867e-01 -1.71939060e-01
      -2.10474566e-01 -5.50076813e-02 -1.11509554e-01 -3.80276769e-01
      -2.26853400e-01 1.96572796e-01 5.01204252e-01 -4.14544106e-01
      -5.59698939e-01 3.86713892e-01 4.05634522e-01 7.00831041e-02
      -1.09427422e-02 -1.91792235e-01 2.84355909e-01 -9.02574211e-02
      -4.25472140e-01 8.11336264e-02 2.76848614e-01 2.04061806e-01
      2.35309139e-01 -2.06746355e-01 -1.95523232e-01 9.81124863e-02
      5.32572344e-03 2.85809696e-01 -1.64497912e-01 -2.33203664e-01
      -1.54817566e-01 -6.74334645e-01 5.78197420e-01 -1.96714662e-02
      -3.65290195e-01 -3.97268027e-01 -4.23348010e-01 2.48744749e-02
      -1.50523901e-01 -2.08782926e-01 1.83149189e-01 2.02294216e-01
      4.64915603e-01 5.53715974e-02 -1.50070395e-02 1.20151415e-01
      4.41086441e-01 3.20650786e-02 -1.06216401e-01 -1.42188653e-01
      3.25703233e-01 9.88254324e-02 -9.32464972e-02 -7.08535850e-01
      1.96838930e-01 1.65002614e-01 -1.15215734e-01 2.50914190e-02
      -4.79523540e-02 1.84877962e-01 7.79975727e-02 -6.50830986e-03
      2.09935814e-01 -1.06733195e-01 3.85949574e-02 -2.45910019e-01
      1.45716175e-01 6.14489987e-02 2.72808932e-02 -6.86419606e-02
      3.35082620e-01 -1.58182874e-01 7.89671317e-02 1.84413642e-01
      -1.13963187e-01 3.96050900e-01 7.55763948e-02 -2.04252347e-01
      -3.33046168e-02 -2.90987939e-01 -2.13177726e-01 1.39681250e-01
      1.24833688e-01 -2.26528227e-01 -5.24265692e-03 -1.29281029e-01</_>
    <_>
      -2.16607258e-01 -4.33594920e-02 7.81994402e-01 6.38420522e-01
      -3.55078220e-01 6.20799482e-01 1.64288040e-02 3.06476533e-01
      -3.02661806e-01 2.27605909e-01 7.53406763e-01 6.57810509e-01
      7.62336403e-02 3.91492575e-01 -8.52008641e-01 -5.77888906e-01
      -1.49087980e-01 4.77228053e-02 4.05451477e-01 -4.41034675e-01
      -2.96479672e-01 4.12479401e-01 2.51302540e-01 1.00303151e-01
      1.38091817e-01 4.61893171e-01 1.67863742e-01 -3.98982018e-02
      -6.66890293e-02 -8.91144797e-02 5.79434216e-01 1.46933496e-01
      -4.84672397e-01 -5.51457796e-03 1.39378875e-01 7.53789306e-01
      2.52232045e-01 -1.87606514e-01 -1.78937510e-01 6.17966831e-01
      -1.93646491e-01 3.35383952e-01 -5.60952425e-01 -1.37025356e+00
      8.19597244e-02 -1.11669922e+00 4.33542758e-01 -2.39707138e-02
      -1.34729758e-01 -5.30762255e-01 -4.43633378e-01 1.74091399e-01
      -2.59500802e-01 -2.72457838e-01 2.53930211e-01 2.18150750e-01
      7.51786292e-01 4.24977750e-01 5.76855056e-02 8.45301747e-02
      1.00221348e+00 -1.08150139e-01 -4.85307306e-01 5.00848651e-01
      4.62302148e-01 1.09162502e-01 -6.31570816e-02 -1.27302206e+00
      6.35581240e-02 9.61899459e-02 3.73403691e-02 -8.25207680e-03
      -1.20791256e-01 6.34704679e-02 4.30247515e-01 -3.13206166e-01
      4.35727388e-01 -5.16843557e-01 -2.19561383e-01 -3.52781296e-01
      2.10130900e-01 -2.59887844e-01 -1.22812785e-01 -4.08235900e-02
      -1.82363704e-01 -2.79589534e-01 -3.67174357e-01 1.78078458e-01
      -2.24021912e-01 8.67157698e-01 -2.55448699e-01 -3.36327076e-01
      -6.89217225e-02 -3.29242796e-01 -2.52363354e-01 4.44847606e-02
      5.61933182e-02 -9.00343120e-01 -4.69341241e-02 1.91554066e-03</_>
    <_>
      -7.53400564e-01 -2.39230603e-01 9.10997272e-01 4.89028603e-01
      -6.30411565e-01 8.75307798e-01 -8.18326771e-02 2.89142481e-04
      -6.64819241e-01 5.08936584e-01 5.95835626e-01 6.42643929e-01
      -1.07609235e-01 1.19226801e+00 -9.81574118e-01 -5.03192306e-01
      -2.36169040e-01 -2.47505866e-02 8.69174063e-01 3.11147898e-01
      1.49880126e-01 4.93646324e-01 3.23114157e-01 3.79736394e-01
      1.23336948e-01 3.40987861e-01 2.59573132e-01 2.27690786e-01
      -8.39390084e-02 -5.24177611e-01 5.65325320e-01 -2.16637641e-01
      -8.74401569e-01 -2.17191372e-02 2.27072105e-01 1.34227431e+00
      -2.18578264e-01 1.37071284e-02 2.38300800e-01 4.02938545e-01
      -7.83277631e-01 5.32139540e-01 -2.80850232e-01 -1.21700776e+00
      1.66665927e-01 -1.15890872e+00 3.20523888e-01 -1.18904911e-01
      -6.24148786e-01 -1.07590663e+00 -1.11203790e+00 1.32662147e-01
      -2.61567235e-01 -6.00026906e-01 1.22786239e-01 3.45571727e-01
      8.72313082e-01 4.56974864e-01 2.09574848e-02 1.94459230e-01
      1.48200345e+00 -5.54229431e-02 -3.52765232e-01 8.01259041e-01
      8.08369145e-02 1.99095905e-01 -9.80875641e-02 -1.92982280e+00
      4.93644893e-01 6.03106439e-01 3.18654673e-03 5.97448535e-02
      -3.14656764e-01 1.24535836e-01 3.17960292e-01 -1.94673419e-01
      9.40355420e-01 -1.61864543e+00 3.90076011e-01 -8.71304810e-01
      6.53918833e-02 -3.18082988e-01 2.09318772e-02 -2.86965892e-02
      -3.22288096e-01 -2.43765861e-01 -6.01477504e-01 2.10214555e-01
      -2.81762421e-01 9.87261176e-01 -1.68667901e-02 -5.69101691e-01
      -4.53939103e-02 -2.06994921e-01 -3.05229902e-01 3.83072287e-01
      4.63137478e-02 -4.85898346e-01 4.56179708e-01 -5.74207269e-02</_>
    <_>
      -2.13780785e+00 -6.74697235e-02 1.52140605e+00 1.39496517e+00
      -5.17065823e-01 4.46990401e-01 -2.96871085e-02 7.06163466e-01
      -9.92335737e-01 8.27141106e-01 1.23066890e+00 1.45923764e-01
      1.26704633e-01 4.65516031e-01 -4.06030703e+00 -1.47367299e+00
      -1.22316025e-01 5.27583696e-02 1.98370314e+00 -2.54418880e-01
      6.07969761e-02 1.07778823e+00 8.36390108e-02 6.47743121e-02
      2.43489757e-01 4.41137642e-01 8.02790999e-01 -5.12566715e-02
      1.66584805e-01 -1.12703192e+00 7.27861583e-01 4.88386363e-01
      -1.40345550e+00 7.27843121e-03 6.07484698e-01 1.74950874e+00
      4.97812152e-01 -1.39707252e-01 1.73336864e-01 6.19824946e-01
      -3.77373934e-01 5.38773417e-01 -6.99275613e-01 -3.06504846e+00
      4.94342297e-02 -2.20810771e+00 8.55373025e-01 -1.05770066e-01
      -2.87910938e-01 -1.12201321e+00 -3.79863590e-01 5.59717929e-03
      -1.17114589e-01 -3.90808195e-01 1.79186121e-01 2.60673046e-01
      1.05433106e+00 1.06020725e+00 1.44264653e-01 2.70770401e-01
      1.96744227e+00 2.04783008e-01 -3.88537824e-01 8.85710537e-01
      6.81091249e-01 6.59696609e-02 -2.45449990e-02 -2.46789026e+00
      4.94333982e-01 6.77459121e-01 -4.70163710e-02 5.30701838e-02
      -2.44903117e-01 -8.31467062e-02 5.82965136e-01 -2.59514481e-01
      1.12994277e+00 -8.20701897e-01 3.32564682e-01 -7.06904948e-01
      1.81796446e-01 -7.37957180e-01 -6.02299929e-01 -2.21106354e-02
      -2.54646558e-02 5.25627621e-02 -1.04974830e+00 4.78423417e-01
      -5.21713018e-01 1.37570167e+00 -2.90677845e-01 -6.42801583e-01
      -4.80263717e-02 -4.70174253e-02 -8.33532363e-02 3.34068120e-01
      5.85247636e-01 -1.53525567e+00 5.66380024e-01 -3.15426011e-03</_>
    <_>
      -1.32757354e+00 -7.92842731e-02 1.25109577e+00 1.05344808e+00
      2.97925323e-01 3.14332604e-01 -3.79894450e-02 2.87519664e-01
      -7.73397207e-01 4.67804849e-01 7.36365557e-01 9.64828312e-01
      -6.62776679e-02 1.10292470e+00 -2.77983475e+00 -1.48965812e+00
      -1.81967854e-01 -2.20680945e-02 1.84609604e+00 -8.98602009e-01
      -3.84259611e-01 1.32161379e+00 3.90145630e-01 -6.81818426e-02
      1.82816312e-01 1.50006998e+00 7.06714451e-01 -2.70946950e-01
      -1.72816828e-01 -1.15332162e+00 4.85784948e-01 2.72282839e-01
      -1.11500382e+00 -1.33641779e-01 2.76607424e-01 1.82066107e+00
      3.39906365e-01 -1.86122105e-01 7.77350143e-02 4.13545102e-01
      -3.20735902e-01 2.10937709e-01 -5.63826561e-01 -2.61714196e+00
      -1.86332643e-01 -1.35468447e+00 8.86946738e-01 -1.40791312e-01
      -1.44740954e-01 -8.20704043e-01 -6.48777723e-01 6.17357306e-02
      -2.03170225e-01 -1.63966060e-01 1.42300606e-01 1.23792671e-01
      9.52679038e-01 1.07098103e+00 2.49094032e-02 3.43880862e-01
      1.60769236e+00 1.06822178e-01 6.69270903e-02 7.81037331e-01
      5.57406664e-01 3.01507022e-02 -1.32779986e-01 -2.25834846e+00
      2.80658782e-01 7.30102062e-01 -8.65510255e-02 -9.67387706e-02
      -1.38065189e-01 -1.62270501e-01 4.55903292e-01 -3.45622785e-02
      5.49069583e-01 -6.74573600e-01 1.99666589e-01 -5.61095238e-01
      1.33125344e-03 -5.47267437e-01 -5.22031426e-01 -1.69207305e-01
      -4.36759233e-01 1.38490006e-01 -5.27051032e-01 6.25926554e-01
      -5.52845538e-01 1.15004611e+00 -1.51041687e-01 -7.46632278e-01
      -8.74497741e-03 -6.11053966e-02 -2.13540450e-01 -7.88942853e-04
      7.49699950e-01 -1.86078465e+00 2.83146799e-01 6.13859762e-03</_>
    <_>
      -9.08208564e-02 -2.42115080e-01 1.64394826e-01 3.09402645e-01
      5.72813153e-01 -1.64772540e-01 -1.67753175e-01 3.97843719e-01
      3.73991549e-01 2.92302430e-01 1.48932904e-01 1.73162535e-01
      2.67029107e-02 6.36474073e-01 -2.53151327e-01 -1.87221169e-02
      -3.18189301e-02 2.51067542e-02 9.08436954e-01 -1.76024944e-01
      1.57418102e-01 3.59905288e-02 -1.88232511e-01 -7.79144645e-01
      -5.89840174e-01 4.86977518e-01 -1.27605274e-01 5.31960905e-01
      -2.09928811e-01 -3.79500866e-01 5.91349065e-01 3.23283337e-02
      -2.76647136e-02 -1.85104325e-01 -1.33849412e-01 8.80340874e-01
      -9.46987495e-02 -1.22253351e-01 -3.09201926e-01 7.87562907e-01
      5.80652542e-02 7.09429681e-02 -2.95901805e-01 4.25368726e-01
      1.18591614e-01 -2.77401626e-01 -2.06776172e-01 -6.84089065e-02
      2.74686515e-03 -9.92567763e-02 -4.40763056e-01 4.57714312e-02
      1.11611774e-02 -1.27551287e-01 -8.92892033e-02 -1.82170168e-01
      3.80752176e-01 2.68901497e-01 8.73981267e-02 -1.25354290e-01
      2.48733059e-01 -3.17621291e-01 1.25904083e-01 -2.55864095e-02
      3.59678358e-01 -7.01883808e-02 -6.76665679e-02 -5.35645187e-01
      -3.48206490e-01 -2.71223187e-01 -1.34187192e-01 -1.06238678e-01
      -4.20498028e-02 -7.12954551e-02 -1.17695265e-01 -6.35065794e-01
      -8.74018222e-02 -1.70205712e-01 -3.67942363e-01 -4.19880122e-01
      1.01891928e-04 -2.98584491e-01 -1.32895440e-01 2.07425728e-01
      -1.39594346e-01 5.59021294e-01 7.08499849e-02 -5.54765463e-02
      -4.13433462e-02 3.93948048e-01 -2.42399290e-01 1.08720802e-01
      -4.02756501e-03 2.32719436e-01 -1.00493707e-01 -1.37039065e-01
      3.73087019e-01 2.27298349e-01 -7.12318897e-01 -5.33295609e-02</_>
    <_>
      -2.06063080e+00 1.99913159e-01 1.16283739e+00 1.49272776e+00
      -1.74175858e-01 -3.31108570e-01 1.09757148e-01 -1.72595188e-01
      -1.03414404e+00 6.76904321e-01 1.95170212e+00 2.69028366e-01
      1.17851473e-01 1.01595700e+00 -3.65544677e+00 -1.35360110e+00
      -3.85162055e-01 7.81833977e-02 1.82945693e+00 2.15477064e-01
      -9.39477757e-02 8.36585701e-01 2.95796096e-01 -2.50681669e-01
      6.10704303e-01 1.64823234e+00 8.69846404e-01 -1.05275167e-02
      2.64999201e-03 -1.49210310e+00 7.58629084e-01 1.01357549e-01
      -1.22231340e+00 6.07656389e-02 2.35420838e-01 2.00757718e+00
      5.18127680e-01 5.85097149e-02 -3.48725587e-01 6.19590640e-01
      -4.25504237e-01 7.42197156e-01 -5.70838451e-01 -2.91072702e+00
      3.80382985e-01 -1.51846933e+00 7.19063342e-01 -1.61343053e-01
      -2.21962795e-01 -1.12760723e+00 -6.97071254e-01 2.47628707e-02
      -4.08259302e-01 -2.22853959e-01 9.09025744e-02 4.31852072e-01
      7.52508342e-01 1.58747315e+00 3.85690518e-02 4.76835757e-01
      2.12392497e+00 3.05318628e-02 -3.07561070e-01 4.20471698e-01
      5.11150956e-01 4.99833487e-02 -1.32957846e-01 -2.31398916e+00
      5.67816198e-01 1.00336695e+00 -1.14628077e-02 -3.68079841e-02
      -1.88306361e-01 4.74424697e-02 8.39733362e-01 -2.30505630e-01
      6.11696362e-01 -1.46571469e+00 2.46847376e-01 -7.26686835e-01
      -8.28798860e-03 -8.86675835e-01 -3.32870275e-01 -1.42905250e-01
      2.02788532e-01 3.03210616e-01 -1.01181769e+00 5.14721692e-01
      -3.93591613e-01 1.43273997e+00 -5.15692115e-01 -9.82473016e-01
      -6.15485664e-03 -1.72425732e-01 -8.85971263e-02 -1.62273496e-01
      8.73403072e-01 -2.17796826e+00 4.26452011e-01 -4.88937236e-02</_>
    <_>
      2.86534894e-02 1.51097849e-01 2.47027278e-02 -2.00197652e-01
      1.87536001e-01 5.86731881e-02 -1.35266468e-01 -1.27485888e-02
      1.61584139e-01 5.52389771e-02 -2.06877530e-01 3.46449912e-02
      -5.08851446e-02 3.14029515e-01 -9.69873890e-02 -1.11608453e-01
      -6.44826666e-02 -1.19446941e-01 3.97542775e-01 -7.60661960e-02
      4.60159220e-02 3.82218778e-01 1.70774266e-01 -3.54526132e-01
      -3.61263275e-01 2.12659150e-01 -1.93539709e-02 2.63960123e-01
      9.22212899e-02 7.15936050e-02 -3.66264842e-02 6.15605935e-02
      -6.35177717e-02 -1.30139172e-01 2.86114644e-02 3.42697740e-01
      -5.27892374e-02 -6.12085499e-02 -1.27924711e-01 2.36486167e-01
      -4.42561926e-03 2.49749705e-01 -1.02519073e-01 1.06407218e-01
      -2.07603097e-01 -4.36315238e-01 -1.43963233e-01 -5.18973870e-03
      7.43731186e-02 -7.55105093e-02 2.82580536e-02 1.03748053e-01
      -1.14506297e-01 -1.76903069e-01 9.15661082e-02 -1.09585769e-01
      1.68655932e-01 1.35411238e-02 9.13383737e-02 1.15332656e-01
      2.28880420e-02 -1.81251585e-01 4.66466956e-02 1.23030528e-01
      2.13493347e-01 1.24505371e-01 6.16836036e-03 5.02344966e-02
      -8.94779488e-02 -1.50511488e-01 5.89820370e-02 2.04862952e-02
      -1.85638275e-02 1.06641591e-01 -3.80358770e-02 -4.31100547e-01
      2.57236451e-01 -2.62592435e-01 -3.19941342e-01 1.21801477e-02
      8.97229463e-02 9.79245547e-03 5.51929958e-02 2.04553269e-02
      -1.40061276e-03 -1.00720841e-02 -1.15415163e-01 4.47297357e-02
      4.11692448e-02 6.39922023e-02 -1.14732452e-01 -8.35557953e-02
      1.84369413e-03 -1.97013259e-01 -9.38706622e-02 2.34995842e-01
      7.25562358e-03 -2.20808201e-02 -1.83858365e-01 -5.20489877e-03</_>
    <_>
      7.91713670e-02 -3.30234617e-01 1.34280813e+00 1.06674242e+00
      -1.01333417e-01 6.37595892e-01 -2.10877657e-01 4.39663142e-01
      -1.92418605e-01 5.45833588e-01 -2.11979821e-01 3.00136451e-02
      2.80741844e-02 3.23183507e-01 -1.54454398e+00 -7.43016839e-01
      -3.43009263e-01 -1.33122718e-02 1.52808273e+00 -2.57357806e-01
      -2.98155427e-01 1.08812892e+00 1.77505583e-01 2.47065455e-01
      6.34622335e-01 1.60051942e+00 5.27930021e-01 -1.20273352e+00
      8.91465843e-02 -5.47200203e-01 1.57379508e+00 2.49151550e-02
      -3.39283735e-01 -2.08220050e-01 1.11592077e-01 2.09877729e+00
      5.93238711e-01 -2.80564606e-01 -3.38209808e-01 6.19562089e-01
      -6.17894650e-01 -7.56367445e-02 -9.06376243e-01 -1.35136092e+00
      -2.04632789e-01 -1.80963242e+00 4.17711347e-01 -1.31103113e-01
      -7.46752545e-02 -6.79622114e-01 -5.39464533e-01 6.55868426e-02
      -1.81564927e-01 -6.85452223e-01 -8.15754533e-02 1.58550553e-02
      6.31727934e-01 9.26843584e-01 -1.17101029e-01 1.37368545e-01
      1.03996563e+00 -8.51321965e-03 -6.80580854e-01 7.39241302e-01
      4.15865898e-01 -1.02637179e-01 -4.57812808e-02 -2.01442075e+00
      3.47097248e-01 2.71422565e-01 -2.11036623e-01 -6.27356395e-02
      -1.26632139e-01 -2.28396468e-02 5.79817146e-02 -2.93936014e-01
      1.37286794e+00 -7.73447931e-01 -5.32315016e-01 -6.47704363e-01
      7.73453638e-02 -3.18198085e-01 -3.86258662e-01 3.17510664e-02
      -4.92876142e-01 -2.14148656e-01 -2.93138206e-01 4.65348274e-01
      -2.24574268e-01 1.62463033e+00 -1.55146882e-01 -9.12070692e-01
      -3.95156369e-02 -4.94402230e-01 -2.45100662e-01 1.64009035e-01
      6.47684455e-01 -1.21431446e+00 3.28483880e-01 -5.58878966e-02</_>
    <_>
      -1.18067883e-01 -1.31253570e-01 9.16693985e-01 3.32663953e-01
      7.83865079e-02 4.02993023e-01 -2.07454070e-01 5.16175389e-01
      1.24497563e-01 4.85206068e-01 3.47284853e-01 3.37875277e-01
      -3.50736082e-02 4.42123473e-01 -9.28711772e-01 -1.71170473e-01
      -2.09007114e-01 7.75048882e-02 8.30338538e-01 -5.41616321e-01
      -1.48685873e-01 3.68505538e-01 5.78174233e-01 1.99064806e-01
      -1.95481069e-02 8.69144619e-01 8.59698728e-02 2.09066585e-01
      7.76574761e-02 -4.10171509e-01 1.05597174e+00 -1.43024996e-01
      -4.17481780e-01 -2.90730655e-01 1.48797616e-01 1.21328247e+00
      2.18908831e-01 -1.54248640e-01 -4.97228861e-01 3.80248159e-01
      -4.31971610e-01 5.49675703e-01 -5.02604723e-01 -6.86515749e-01
      -7.21360557e-03 -1.02574086e+00 3.24264199e-01 -1.23831935e-01
      -4.02857969e-03 -7.00519145e-01 -8.32881212e-01 1.11503825e-01
      -5.31681836e-01 -4.78710145e-01 3.03441286e-01 3.52713346e-01
      4.26228702e-01 3.41422766e-01 8.87380466e-02 -9.94447172e-02
      1.20720780e+00 -2.43158899e-02 -9.99942794e-02 4.51974869e-01
      9.04134363e-02 -1.17599666e-02 -1.10831790e-01 -1.68650782e+00
      2.88955778e-01 -6.91043446e-03 -6.97034672e-02 1.57238450e-02
      -1.94552183e-01 9.58870798e-02 -1.59948200e-01 -5.10721266e-01
      6.88531578e-01 -8.22672188e-01 -2.94002473e-01 -7.55440712e-01
      1.11315377e-01 -1.35820672e-01 -2.96216786e-01 1.35431945e-01
      4.80001494e-02 -3.21175426e-01 -2.90103108e-01 1.34000868e-01
      -2.18823776e-01 1.23208284e+00 -1.66943714e-01 -4.75476444e-01
      -2.08673850e-02 -4.92113858e-01 -3.38915378e-01 -2.31809337e-02
      3.21924299e-01 -2.68467575e-01 6.72610700e-02 -3.91486473e-02</_>
    <_>
      -4.08059239e-01 2.63513774e-01 9.12116230e-01 1.43394971e+00
      -5.86980060e-02 6.72722049e-03 2.58392617e-02 2.88043432e-02
      2.06965506e-01 8.98278892e-01 3.77312213e-01 -1.25748742e+00
      -9.20121092e-03 4.45744306e-01 -4.47854805e+00 -2.31031418e-01
      -2.86044389e-01 -7.71223307e-02 2.20832968e+00 -2.24420881e+00
      -7.81957731e-02 1.17834938e+00 7.83054978e-02 -2.02953786e-01
      3.71782154e-01 2.59937978e+00 2.06294417e+00 -8.83808196e-01
      -7.65499413e-01 -6.05341733e-01 5.75017393e-01 3.28779608e-01
      -9.74326134e-01 -7.91564807e-02 -4.05679680e-02 1.36558068e+00
      7.02529848e-02 -6.65830821e-02 -2.70924121e-01 9.36378062e-01
      -6.42513931e-01 1.56900078e-01 -6.60392165e-01 -1.02432585e+00
      -5.22441924e-01 -1.14358842e+00 1.38880682e+00 -6.68314695e-02
      -2.78376430e-01 -6.60246491e-01 -7.35953987e-01 -7.72598982e-02
      -5.18408775e-01 -2.10792050e-01 -1.20324515e-01 -3.53007138e-01
      4.71404105e-01 1.97600782e+00 4.31808308e-02 7.21615031e-02
      2.05944633e+00 -4.58999902e-01 7.25256726e-02 2.76509285e-01
      5.64725280e-01 -2.47636318e-01 -2.83653922e-02 -1.50275052e+00
      2.49532953e-01 1.16885293e+00 -1.69785202e-01 6.77116215e-03
      -7.17983693e-02 -3.07467610e-01 9.38526571e-01 -9.66036320e-01
      1.01961958e+00 -7.10491836e-01 3.62160265e-01 -4.30459678e-01
      -8.57356369e-01 -5.78283727e-01 -2.71232903e-01 -3.77518058e-01
      1.69670448e-01 3.00740540e-01 -6.32207751e-01 6.92904413e-01
      -1.23575583e-01 1.65773833e+00 -7.27283210e-02 -1.24524665e+00
      -3.19910119e-03 -4.85243708e-01 -2.93873250e-01 -3.29816751e-02
      1.00561130e+00 -1.13630021e+00 6.39386997e-02 -5.63266762e-02</_>
    <_>
      -4.06447887e-01 -2.07977086e-01 1.18697667e+00 -3.74751568e-01
      -3.50881666e-01 5.67187726e-01 -2.90575922e-01 1.58383757e-01
      1.06709644e-01 4.20640931e-02 5.49977422e-02 -8.08748081e-02
      -2.80604750e-01 7.14025199e-01 -4.44254756e-01 -3.26380700e-01
      -1.31050095e-01 -2.14677919e-02 4.96998399e-01 2.92986363e-01
      9.23378095e-02 8.77312422e-01 7.84155428e-02 -8.36205631e-02
      -1.08401507e-01 8.37706923e-01 9.94493142e-02 2.16930449e-01
      -2.45969325e-01 -3.55840057e-01 3.04251552e-01 -7.57533550e-01
      -6.36948347e-01 -1.69773176e-01 2.25963131e-01 4.78833973e-01
      1.65732980e-01 -1.38218030e-01 -1.28922477e-01 4.03094411e-01
      -6.12530768e-01 1.00911677e+00 4.90721548e-03 -7.00004339e-01
      -4.20205481e-02 -5.54224670e-01 3.33226584e-02 -5.49582504e-02
      -1.14423864e-01 -5.07073998e-01 -4.19172287e-01 1.16629660e-01
      4.03209636e-03 -2.84674972e-01 -7.09330812e-02 1.05269089e-01
      3.79777849e-01 2.87068397e-01 4.01045755e-02 -2.33020008e-01
      3.22159827e-01 -1.54532403e-01 6.62378147e-02 3.56843323e-01
      1.23503052e-01 -5.58385439e-02 -1.40296802e-01 -4.40645725e-01
      2.56750584e-01 4.43894356e-01 -4.02608141e-02 2.24936813e-01
      -5.01749516e-01 -1.56898871e-01 -5.61311126e-01 -2.56401241e-01
      4.98029262e-01 -4.98408496e-01 2.43986964e-01 -1.44084811e-01
      2.35493816e-02 -6.12517118e-01 -1.77140445e-01 -1.05665304e-01
      -2.26594597e-01 -1.59266661e-03 5.69390841e-02 4.07291293e-01
      -1.12785690e-01 8.15102220e-01 -6.66517913e-02 -9.57127512e-02
      -2.02549528e-02 -9.76192504e-02 -1.64084081e-02 1.29893720e-01
      2.52788246e-01 -4.85849380e-01 5.59986770e-01 -5.97285964e-02</_>
    <_>
      -4.93277133e-01 1.92291960e-01 7.27786303e-01 8.59579071e-02
      -4.57836866e+00 5.93036890e-01 -9.17065814e-02 -1.11694717e+00
      -3.20451784e+00 -2.03260684e+00 3.98143935e+00 2.73910189e+00
      1.48636219e-03 -1.58093393e+00 -6.17450655e-01 4.84995618e-02
      3.88242900e-01 2.81177163e-01 -3.28972578e+00 7.85240233e-01
      -1.94979772e-01 -8.56219411e-01 -4.69751567e-01 -1.00623703e+00
      -2.76488543e+00 -3.26401329e+00 3.98750520e+00 3.48204923e+00
      4.77560610e-01 -7.01297283e-01 -4.79671764e+00 -1.05379128e+00
      -3.58336866e-01 1.43214703e-01 7.65294850e-01 -5.32662678e+00
      8.81936729e-01 4.59842503e-01 2.03798860e-01 -2.03731775e+00
      7.51886785e-01 3.37008691e+00 1.30789757e+00 4.87452671e-02
      1.01905370e+00 2.73755813e+00 -1.53708911e+00 -2.57825088e-02
      2.67653503e-02 -1.26181275e-01 1.01971173e+00 2.95419484e-01
      -7.49801636e-01 1.33643091e-01 9.74581003e-01 2.04962325e+00
      -4.98251915e-01 -1.47449553e+00 -1.09683260e-01 -9.10246149e-02
      4.06511641e+00 4.80929434e-01 -1.56620526e+00 -1.24144450e-01
      -8.79107714e-01 8.62583816e-01 -4.40433845e-02 7.69488990e-01
      -9.74652767e-02 -1.32688209e-01 3.76016796e-01 2.70243436e-01
      -8.23477935e-03 7.47193992e-01 -8.40176642e-01 1.54576814e+00
      -2.74146461e+00 2.79806876e+00 1.26324296e+00 5.87971449e-01
      8.02004695e-01 -6.33904815e-01 3.09554506e-02 8.80513072e-01
      1.49803579e+00 -1.78907537e+00 2.99770308e+00 -7.14720488e-01
      -2.06863925e-01 -1.70771265e+00 1.00539076e+00 8.46739829e-01
      1.68430749e-02 7.72618890e-01 1.15413152e-01 7.24465370e-01
      -2.01637602e+00 -3.00610542e-01 8.56775105e-01 -2.37049628e-02</_>
    <_>
      -2.17916340e-01 -2.53130458e-02 7.30271935e-01 -1.15355827e-01
      -2.92166066e+00 7.92278171e-01 6.12568576e-03 -6.11785650e-01
      -2.80027628e+00 -1.30303299e+00 2.74789047e+00 1.96442294e+00
      -2.38765534e-02 -6.20933175e-01 -6.61179274e-02 -4.40396547e-01
      2.53193021e-01 2.64503241e-01 -9.89814937e-01 6.05833948e-01
      -1.89506397e-01 3.42720076e-02 -5.83629906e-01 2.41043061e-01
      -9.52087402e-01 -1.95763922e+00 2.81531262e+00 1.09240484e+00
      3.93677413e-01 -3.86291355e-01 -2.39351392e+00 -3.62068504e-01
      -1.64390013e-01 -2.19954625e-02 4.58386183e-01 -1.90483475e+00
      5.06909728e-01 4.25954700e-01 2.42351666e-01 -1.04593909e+00
      2.58289158e-01 1.52249682e+00 8.31408203e-01 -1.02822888e+00
      8.66418362e-01 1.04203880e+00 4.51199375e-02 -2.74060108e-02
      -1.32651180e-01 -3.49924535e-01 3.40658844e-01 3.89461488e-01
      -4.73757803e-01 1.05883420e-01 5.21078050e-01 1.47713637e+00
      -1.63325444e-01 -9.64609861e-01 -7.09223673e-02 -2.36751780e-01
      2.70499849e+00 4.63206135e-02 -1.14656162e+00 5.51864862e-01
      -5.29655993e-01 4.74889606e-01 -3.39213796e-02 -4.56981033e-01
      -5.54909781e-02 -5.29617906e-01 1.86237857e-01 1.40542537e-01
      -9.65803564e-02 4.77030814e-01 -1.01244855e+00 1.05706465e+00
      -1.10378778e+00 1.44779813e+00 6.18441164e-01 2.16465220e-01
      8.12673032e-01 -5.05859494e-01 -3.82371485e-01 6.93321109e-01
      4.53987718e-01 -1.21209085e+00 1.61212134e+00 -6.03688359e-01
      -1.77675441e-01 -6.76448584e-01 3.12863052e-01 6.88031197e-01
      2.64600720e-02 3.56981963e-01 -6.90251663e-02 2.08129972e-01
      -1.42137289e+00 -9.07244802e-01 3.55592370e-01 5.01390770e-02</_>
    <_>
      -1.19967222e+00 -1.08638525e-01 8.86784375e-01 -1.76182464e-01
      -3.76372385e+00 7.89323747e-01 5.33847734e-02 -7.01539159e-01
      -3.71805024e+00 -1.33751416e+00 3.79807043e+00 2.25053167e+00
      -1.15903892e-01 -5.39571285e-01 -1.33408159e-01 2.10709069e-02
      1.47243947e-01 2.17129335e-01 -8.26392412e-01 1.99774539e+00
      4.57254589e-01 4.29810077e-01 -3.93258840e-01 4.77985322e-01
      -9.40960288e-01 -2.82400560e+00 2.79858088e+00 2.50090504e+00
      3.83348763e-01 -1.21289957e+00 -2.70573688e+00 -8.11278880e-01
      -7.63030350e-01 6.58766776e-02 6.92173064e-01 -2.06684875e+00
      3.39456767e-01 4.70593452e-01 8.57284606e-01 -1.56459057e+00
      -4.94822562e-01 2.52224636e+00 9.04102385e-01 -4.86665964e-01
      1.10585499e+00 1.40593266e+00 -3.81630659e-01 -1.00860149e-01
      -3.10421944e-01 -9.89424825e-01 -1.23893313e-01 3.37916553e-01
      -6.46396458e-01 -8.56093884e-01 5.72588801e-01 1.66937375e+00
      4.32434022e-01 -1.28026104e+00 -2.06473306e-01 -9.15381983e-02
      3.46660686e+00 1.61369950e-01 -1.73567438e+00 7.06229746e-01
      -9.17575955e-01 6.30213618e-01 -5.90721853e-02 -6.57515585e-01
      2.51035273e-01 -9.51491445e-02 3.21809918e-01 1.14847690e-01
      -4.55573469e-01 5.81591725e-01 -8.21795702e-01 1.24042463e+00
      -2.87359565e-01 9.15639773e-02 1.50206244e+00 -3.47178578e-01
      6.83295369e-01 -6.72216654e-01 2.67322101e-02 8.42221022e-01
      5.12720287e-01 -1.57426858e+00 1.46224809e+00 -7.89945781e-01
      -3.51661026e-01 -9.91291523e-01 5.47940612e-01 3.84525508e-02
      1.35435760e-02 5.48344910e-01 -1.89266235e-01 7.32915998e-01
      -1.87229586e+00 -4.77739692e-01 1.10749793e+00 -1.40289054e-03</_>
    <_>
      -2.55601978e+00 -8.31215875e-04 2.08793497e+00 9.39983130e-01
      -3.27682590e+00 1.15262516e-01 2.37855554e-01 -9.33884561e-01
      -5.10110140e+00 -1.22260976e+00 5.46615839e+00 2.09147358e+00
      2.05455255e-03 -1.46281624e+00 -2.40134025e+00 -1.24951744e+00
      2.35268980e-01 3.19251180e-01 1.02196582e-01 1.51132679e+00
      3.77393477e-02 9.87972915e-01 -7.77907670e-01 -2.74923891e-01
      -1.72640073e+00 -4.89521837e+00 4.09666443e+00 3.03217649e+00
      6.31557405e-01 -1.74716055e+00 -6.12540054e+00 -3.89232218e-01
      -1.02654040e+00 1.12255365e-02 8.76684725e-01 -3.90986300e+00
      1.14436519e+00 5.02768874e-01 6.21200383e-01 -1.05998242e+00
      3.85704458e-01 2.54737997e+00 8.66910577e-01 -2.72551155e+00
      1.26731861e+00 2.21639991e+00 -7.49851316e-02 -8.18122253e-02
      2.82245618e-03 -8.80514383e-01 9.21158731e-01 3.22628140e-01
      -6.37108743e-01 -6.10452257e-02 7.98801839e-01 1.88791203e+00
      2.82735676e-01 -1.03240895e+00 7.98068068e-04 -6.81181848e-02
      4.78029919e+00 4.77414310e-01 -1.87098277e+00 1.18042862e+00
      -6.21415138e-01 5.58434308e-01 -8.36961251e-03 -1.08901334e+00
      8.60373378e-02 2.47534722e-01 3.72332036e-01 1.79901689e-01
      -1.69180512e-01 4.94863302e-01 -2.78717786e-01 1.55688560e+00
      -1.78489232e+00 1.98154414e+00 1.23742855e+00 2.47419178e-01
      1.04993367e+00 -1.27241564e+00 -7.82642484e-01 1.00041997e+00
      1.12978983e+00 -1.95613742e+00 2.64028430e+00 -4.60119933e-01
      -4.14953113e-01 -4.15370256e-01 5.45511365e-01 4.87658709e-01
      -9.75363608e-03 1.00632012e+00 2.42272153e-01 6.12853825e-01
      -1.84491968e+00 -1.52478182e+00 1.42023933e+00 1.15248777e-01</_>
    <_>
      -1.44800258e+00 -4.85208891e-02 1.65870965e+00 4.55648452e-01
      -2.04627919e+00 1.46011889e-01 1.27307072e-01 -8.77678156e-01
      -3.62503123e+00 -8.74273598e-01 3.70011187e+00 1.92767668e+00
      -9.06169862e-02 -1.14994562e+00 -1.78826439e+00 -1.77408874e+00
      2.37684786e-01 2.44194493e-01 5.64968288e-02 8.13484371e-01
      -4.28560585e-01 6.62819326e-01 -3.51656795e-01 -2.98777193e-01
      -1.46582019e+00 -2.60145926e+00 3.47764683e+00 2.07981515e+00
      2.26553693e-01 -1.11127639e+00 -4.72203302e+00 -3.67347926e-01
      -9.51573730e-01 2.60104258e-02 5.35218298e-01 -3.08486986e+00
      1.05782795e+00 4.97230202e-01 5.97409010e-01 -1.03061473e+00
      3.75927001e-01 1.72209859e+00 8.59969556e-01 -2.49205709e+00
      9.78246450e-01 2.15900111e+00 -8.94254446e-02 -8.43123272e-02
      -5.40821720e-03 -5.00078022e-01 4.46307361e-01 3.46982181e-01
      -5.93510807e-01 1.34822384e-01 6.87391043e-01 1.91676331e+00
      -2.50788391e-01 -4.75270063e-01 -7.88171217e-02 1.82173178e-02
      3.59414268e+00 4.56395864e-01 -1.13139033e+00 7.36172080e-01
      -4.11088675e-01 3.09172750e-01 -1.22316733e-01 -9.10258651e-01
      -2.05333263e-01 9.80458558e-02 2.99613565e-01 1.13251224e-01
      -1.37589395e-01 2.99308509e-01 -2.44734362e-01 1.52125084e+00
      -1.77300024e+00 1.69959092e+00 1.28050590e+00 2.84650892e-01
      6.03517771e-01 -1.08034790e+00 -6.00438178e-01 5.95700204e-01
      5.00766695e-01 -1.00352597e+00 2.39514279e+00 -1.80719972e-01
      -4.39283490e-01 -3.87080789e-01 7.87908494e-01 -3.91714387e-02
      1.73054244e-02 7.44156420e-01 3.51495221e-02 5.08790553e-01
      -1.16368055e+00 -1.80434036e+00 1.21698952e+00 6.95462227e-02</_>
    <_>
      -3.53016436e-01 -3.77513707e-01 -7.45146722e-02 6.26712292e-02
      -1.53892592e-01 -1.79834336e-01 -1.51253194e-01 -9.47551131e-02
      -4.41490203e-01 -6.53117970e-02 1.11962056e+00 5.65372765e-01
      -1.49367712e-02 -3.46106946e-01 -1.91891328e-01 1.66266814e-01
      1.54283002e-01 1.88645095e-01 -4.95391518e-01 4.57800962e-02
      2.84610335e-02 -1.45681739e-01 -4.84556586e-01 -8.21918428e-01
      -1.25469339e+00 -3.71604323e-01 9.28288758e-01 1.38906133e+00
      3.15256119e-02 -7.54437804e-01 -1.16805112e+00 7.35029727e-02
      1.90106884e-01 -1.85382843e-01 -1.75646812e-01 -1.28975379e+00
      2.65971273e-01 2.37739801e-01 -1.94214776e-01 -4.29463685e-02
      1.02690347e-01 1.92810476e-01 6.31492019e-01 4.73422468e-01
      3.70452046e-01 1.18144679e+00 -1.19399345e+00 5.66241052e-03
      -8.48146901e-03 -2.93406541e-03 1.17449678e-01 7.31798932e-02
      -6.09360524e-02 -1.29547313e-01 2.92333603e-01 7.07515478e-01
      -3.32322329e-01 -1.75673842e-01 -2.73643464e-01 -4.15162355e-01
      1.15145063e+00 -1.87005624e-01 -4.21992615e-02 3.42117578e-01
      -1.94891959e-01 1.92987099e-01 -3.73235978e-02 3.36873323e-01
      -2.54869878e-01 -4.84383494e-01 1.91559106e-01 -1.68265067e-02
      4.33466444e-03 -5.79217635e-02 -4.20211345e-01 1.16048709e-01
      -1.24442124e+00 1.04090536e+00 6.57382548e-01 2.62245964e-02
      1.66838869e-01 -3.74602050e-01 -1.32583961e-01 7.45991051e-01
      4.99819547e-01 -2.50822514e-01 1.31034935e+00 -3.13852847e-01
      -6.15180656e-02 -3.53280634e-01 -1.10448033e-01 3.17430109e-01
      8.90799053e-03 4.08828497e-01 -1.58095002e-01 1.55067340e-01
      -1.68752223e-01 1.08296700e-01 -1.42593030e-02 -7.74043798e-02</_>
    <_>
      -2.57334709e+00 1.62588149e-01 1.80271995e+00 1.02562618e+00
      -3.09997511e+00 -5.18820703e-01 2.75475949e-01 -1.36224318e+00
      -4.75894070e+00 -1.05397105e+00 6.09344578e+00 2.09672236e+00
      -7.41580152e-05 -1.36272025e+00 -2.04242206e+00 -1.57888710e+00
      5.92698641e-02 3.07142913e-01 -2.63352275e-01 2.20592260e+00
      -4.86246161e-02 3.81919056e-01 -8.08212996e-01 -6.19545996e-01
      -1.82003522e+00 -3.26785493e+00 4.02570581e+00 2.96588397e+00
      5.64488053e-01 -2.14468169e+00 -6.17341137e+00 -4.54503000e-01
      -8.74435544e-01 1.60270616e-01 7.17179656e-01 -4.75622129e+00
      1.16055226e+00 6.93091393e-01 1.42174885e-01 -1.04149878e+00
      2.57423401e-01 2.57157516e+00 9.41397488e-01 -2.61987281e+00
      1.77542651e+00 3.06911182e+00 -2.92234004e-01 -1.66878939e-01
      -1.37653351e-01 -8.85731220e-01 8.07800710e-01 4.04285699e-01
      -9.34555352e-01 1.37621269e-01 7.55299687e-01 2.36389828e+00
      -6.73350632e-01 -2.81618237e-01 -7.58548975e-02 1.72061637e-01
      5.03902102e+00 3.32497627e-01 -1.74866116e+00 9.02152896e-01
      -1.06990957e+00 5.94512224e-01 -1.39230743e-01 -9.04882193e-01
      -6.08583912e-02 4.93398666e-01 3.58305216e-01 7.72866681e-02
      -1.16853386e-01 5.52848816e-01 4.37322333e-02 1.84803569e+00
      -3.13542056e+00 1.82494080e+00 1.45687795e+00 2.93003142e-01
      7.48468637e-01 -1.33305669e+00 -5.07275879e-01 8.62352967e-01
      1.28406155e+00 -1.10379755e+00 2.98349071e+00 -2.96683878e-01
      -3.79409969e-01 -7.61239886e-01 3.73995006e-01 2.92340785e-01
      3.10116056e-02 1.18839443e+00 2.00877011e-01 1.60273328e-01
      -1.18511319e+00 -2.25597501e+00 1.59623778e+00 5.56984395e-02</_>
    <_>
      1.03363451e-02 -6.35810420e-02 2.42102832e-01 -3.65583807e-01
      -3.57688904e-01 -2.66761947e-02 -1.12783156e-01 -3.19285572e-01
      -4.07570958e-01 -3.50934178e-01 -6.39120340e-02 5.05013525e-01
      -1.66785717e-01 -2.32265666e-01 3.07251904e-02 3.14994484e-01
      8.21039602e-02 9.62046608e-02 -3.25040102e-01 1.55855209e-01
      1.26063332e-01 1.79382250e-01 8.29271525e-02 -1.87548161e-01
      -5.78328848e-01 -5.68198860e-01 -6.81962296e-02 4.25681859e-01
      1.92205474e-01 -2.14056715e-01 -1.31504595e+00 1.42029505e-02
      2.39776433e-01 2.80342214e-02 1.86513275e-01 -1.16052055e+00
      1.36001468e-01 1.20189779e-01 4.83604491e-01 -1.72301531e-01
      2.42406502e-01 3.89664084e-01 3.38091284e-01 4.64974314e-01
      3.14738125e-01 2.47264668e-01 -2.48267174e-01 -1.18614724e-02
      3.48453037e-02 1.61369648e-02 1.87830448e-01 1.17345370e-01
      -1.97767779e-01 -2.07248591e-02 1.81838751e-01 1.40040755e-01
      -3.22103798e-01 -2.37905279e-01 -1.74830295e-02 -1.40959546e-01
      3.03575337e-01 1.96063653e-01 5.06073870e-02 2.91359276e-01
      -2.79869676e-01 2.09778249e-01 1.72504075e-02 7.16525793e-01
      -3.56947184e-02 6.67104796e-02 2.27454618e-01 1.27752796e-01
      -7.87547603e-03 2.00851873e-01 -3.00871015e-01 -1.29341170e-01
      -5.70662260e-01 -8.69154632e-02 4.60019946e-01 1.26583993e-01
      2.02064827e-01 -8.13790932e-02 2.90480107e-01 3.31524253e-01
      9.64259952e-02 -2.13331170e-02 -1.65894821e-01 -1.90255150e-01
      4.55134027e-02 -6.72592759e-01 1.49821281e-01 -3.25515494e-02
      1.11203650e-02 9.45454463e-02 1.71160847e-02 4.27549779e-01
      -2.60932297e-01 1.64256021e-01 1.98822450e-02 -8.23836848e-02</_>
    <_>
      2.85740402e-02 -4.04944062e-01 9.97000337e-01 -1.99819520e-01
      -1.81739581e+00 8.33251715e-01 -1.75688535e-01 -2.45754376e-01
      -1.33601701e+00 -5.22741914e-01 1.10951746e+00 1.26536000e+00
      -3.57857794e-02 -3.14360768e-01 -7.83363104e-01 -7.75102615e-01
      -1.95920706e-01 1.42949983e-01 5.92046604e-02 9.88478422e-01
      9.36056208e-03 3.59764844e-01 -2.45740429e-01 4.20643806e-01
      -3.98844391e-01 -1.15744543e+00 1.61663616e+00 -1.55180380e-01
      3.48764390e-01 -4.43668038e-01 -1.04995406e+00 -2.65312523e-01
      1.29640192e-01 -3.31027359e-02 4.23131347e-01 -4.03798580e-01
      7.15598047e-01 1.49786964e-01 3.59147877e-01 -5.20661950e-01
      6.56267107e-02 9.02305186e-01 1.20261714e-01 -1.04910576e+00
      8.32900643e-01 3.55316043e-01 -1.12453848e-01 -9.55086052e-02
      -9.05657560e-02 -4.42660749e-01 1.07656859e-01 1.39675096e-01
      -2.57118583e-01 -3.33032310e-01 5.31437337e-01 8.16118836e-01
      1.77203685e-01 -3.67850155e-01 -1.62344500e-01 -2.40479961e-01
      1.56575644e+00 5.39764911e-02 -9.28010643e-01 6.84690177e-01
      -3.59887719e-01 2.79250331e-02 -1.67715494e-02 -9.53209519e-01
      1.05391011e-01 -3.38223487e-01 1.53989941e-01 8.53407606e-02
      -1.80035785e-01 3.78490657e-01 -8.65034401e-01 6.50783300e-01
      -1.54941410e-01 6.78444922e-01 4.15855914e-01 -2.48364061e-01
      5.19683421e-01 -2.96952963e-01 -1.33940876e-01 5.09878039e-01
      1.00030780e-01 -8.48676920e-01 9.60355043e-01 -3.85563284e-01
      -2.49816209e-01 -1.52238056e-01 2.35682517e-01 -1.57036960e-01
      -7.47110881e-03 -2.43583955e-02 -7.79366344e-02 3.97743940e-01
      -3.01841825e-01 -8.48262668e-01 6.21936500e-01 9.02922545e-03</_>
    <_>
      -8.51853430e-01 -2.69068658e-01 7.56040692e-01 -5.86822093e-01
      -2.14329600e+00 3.31793696e-01 -1.00712165e-01 -2.96842784e-01
      -1.94422174e+00 -1.22806168e+00 2.03529954e+00 2.04206491e+00
      -1.02675766e-01 -7.81996906e-01 5.05680628e-02 -7.79397935e-02
      8.90806690e-02 3.14845681e-01 -5.67920566e-01 3.31358075e-01
      9.54265073e-02 9.66554880e-03 -1.27643675e-01 9.49409157e-02
      -1.03380513e+00 -2.40410399e+00 2.05702639e+00 1.92278504e+00
      3.97275984e-01 -7.99640298e-01 -2.00567794e+00 -4.11574543e-01
      -1.85885280e-01 -1.62620038e-01 5.44624925e-01 -2.02113199e+00
      6.07815146e-01 4.65930909e-01 -1.56165078e-01 -9.36642110e-01
      -1.89219251e-01 1.81914282e+00 7.36437201e-01 -9.04484913e-02
      8.34504485e-01 1.33024776e+00 1.53539345e-01 -7.07521960e-02
      1.58790365e-01 -4.52600837e-01 4.85615544e-02 2.92530179e-01
      -7.02220380e-01 -2.36029983e-01 6.49071634e-01 1.71238089e+00
      -2.93678015e-01 -1.39626789e+00 -1.26253083e-01 -5.84811389e-01
      2.65246773e+00 3.36382002e-01 -1.00240743e+00 3.82641077e-01
      -3.22356910e-01 3.71613175e-01 -5.52665405e-02 -4.78870749e-01
      2.23878156e-02 -3.94395202e-01 3.21187139e-01 1.66946605e-01
      -3.12897533e-01 3.43740672e-01 -1.59750438e+00 1.06913364e+00
      -9.04682457e-01 9.82306182e-01 5.89516699e-01 -2.62653768e-01
      5.72454691e-01 -3.64435405e-01 -1.91019952e-01 7.18250751e-01
      8.67658556e-01 -1.06394446e+00 1.92707324e+00 -6.26399755e-01
      -1.44734412e-01 -3.61049116e-01 4.87800092e-01 2.80849755e-01
      5.20295650e-02 2.46438131e-01 -4.49468307e-02 2.28290051e-01
      -1.15015030e+00 -3.98564339e-01 4.99500245e-01 1.44450366e-02</_>
    <_>
      -4.12540823e-01 1.24382950e-01 1.09121168e+00 9.55257118e-01
      -2.75800085e+00 1.25449359e-01 1.98409915e-01 -1.31996524e+00
      -1.61163902e+00 -4.32498842e-01 3.67429280e+00 1.61810383e-01
      -6.37146682e-02 -1.00469613e+00 -2.78072739e+00 -3.23057979e-01
      1.50915563e-01 1.55442551e-01 -3.01148236e-01 -3.82031620e-01
      -4.18216258e-01 2.40721256e-01 -1.13624501e+00 -8.34679902e-01
      -1.93360209e+00 -8.20052505e-01 4.62942934e+00 1.53027475e+00
      1.27087487e-03 -8.67832601e-01 -5.98117065e+00 -3.00425053e-01
      -6.91361964e-01 1.79237127e-01 3.66017610e-01 -4.29117870e+00
      6.12283945e-01 5.94523609e-01 3.75021309e-01 -3.15929890e-01
      7.64058903e-02 1.71510601e+00 6.34584665e-01 -6.98175967e-01
      7.33572841e-01 2.83586955e+00 5.10706186e-01 -7.17209950e-02
      -3.16065758e-01 -4.39849138e-01 5.56780279e-01 1.83518320e-01
      -8.70747924e-01 1.44936323e-01 4.13362205e-01 1.21612072e+00
      -7.87442207e-01 6.65500462e-01 2.91928314e-02 1.22530691e-01
      3.98972082e+00 -2.33184680e-01 -3.89851838e-01 3.00901473e-01
      -6.12828553e-01 2.71868616e-01 -3.59048992e-02 2.24345438e-02
      -2.40682736e-01 6.10425889e-01 7.96018466e-02 1.58535555e-01
      -1.32182557e-02 1.56372541e-03 2.60018617e-01 5.84740937e-01
      -2.44134021e+00 1.80092859e+00 1.59643209e+00 3.11348587e-01
      -2.04745173e-01 -8.83423746e-01 -3.84833694e-01 4.05358225e-01
      1.02610028e+00 -7.50492752e-01 2.18134427e+00 -1.60667360e-01
      -9.55357328e-02 -4.18754429e-01 6.40401781e-01 -1.83772713e-01
      3.92030664e-02 4.17563468e-01 9.87283885e-02 3.11637014e-01
      -5.51899135e-01 -1.21254659e+00 8.44303548e-01 2.10990850e-02</_>
    <_>
      -2.34049574e-01 -4.32882965e-01 1.46184349e+00 -1.62359309e+00
      -2.53801608e+00 1.03588891e+00 -2.93234318e-01 -3.74386281e-01
      -1.83492541e+00 -2.06219172e+00 1.30135047e+00 1.29541123e+00
      -5.01306295e-01 -4.20392931e-01 7.69237339e-01 -4.27194983e-01
      7.01489151e-02 1.70691550e-01 -6.91939652e-01 1.76659524e+00
      1.23080723e-01 4.91205037e-01 -5.31087399e-01 1.74063429e-01
      -1.65343738e+00 -9.49013352e-01 2.74995852e+00 2.01218796e+00
      1.39631718e-01 -2.44535416e-01 -2.86462426e+00 -1.96164489e+00
      -3.58757704e-01 -2.05377579e-01 6.35093510e-01 -2.71814370e+00
      4.56115931e-01 3.97090793e-01 7.39690542e-01 -1.09898043e+00
      -5.00866234e-01 2.74892521e+00 8.24437737e-01 -3.68675709e-01
      1.04104900e+00 2.01334476e+00 -7.62427747e-01 -4.57960479e-02
      -4.23543751e-02 -4.12562966e-01 -6.64086342e-02 3.60977530e-01
      -1.94516301e-01 -1.10734069e+00 4.14120615e-01 1.20630562e+00
      1.79931000e-01 -9.54384863e-01 -1.78556949e-01 -1.14672685e+00
      2.14155126e+00 3.68983597e-01 -4.64158148e-01 4.47892904e-01
      -4.87126857e-01 4.32682693e-01 -5.13885617e-02 3.06583643e-02
      1.70640871e-01 4.03505802e-01 2.81895429e-01 1.70045912e-01
      -6.70618653e-01 2.69122213e-01 -2.37706161e+00 1.20871580e+00
      -9.48113143e-01 8.56046796e-01 1.98808110e+00 1.33229300e-01
      6.15419626e-01 -7.03236282e-01 1.78603455e-01 7.11352944e-01
      -2.27659643e-02 -7.93826163e-01 1.31447744e+00 -8.17893445e-01
      -1.89094648e-01 -5.38183987e-01 5.98909020e-01 3.87418061e-01
      2.91082729e-02 4.97007847e-01 3.03123216e-03 6.50163412e-01
      -1.19117129e+00 -4.65099037e-01 1.05629396e+00 -3.14410985e-03</_>
    <_>
      -1.27418250e-01 -2.13284850e-01 2.41088778e-01 -1.33812144e-01
      2.31354922e-01 4.58103828e-02 2.53225952e-01 1.75662264e-02
      7.03761876e-02 2.57908180e-03 3.01199406e-01 -1.20502725e-01
      -4.04645689e-02 9.89177153e-02 1.31091976e-03 -1.43947378e-01
      -1.19648002e-01 3.01337093e-02 1.06080282e+00 1.60355479e-01
      -7.67091289e-02 8.34247291e-01 -9.81430858e-02 6.54288709e-01
      8.87258768e-01 2.15464070e-01 -1.36570185e-01 -4.25039291e-01
      -1.55101130e-02 -8.33933130e-02 2.63270020e-01 3.77099141e-02
      -2.29182065e-01 -6.35561273e-02 -1.89065963e-01 3.11688036e-01
      -3.05811521e-02 -2.35299543e-02 1.06926650e-01 5.45669615e-01
      -3.77244234e-01 -5.33940613e-01 -3.14173371e-01 -7.96848059e-01
      1.44992307e-01 -2.13832960e-01 6.64131820e-01 -4.27822433e-02
      -3.48420106e-02 -1.02807142e-01 -1.64748490e-01 1.30136684e-01
      4.34721224e-02 -2.63477694e-02 9.84840617e-02 7.58623257e-02
      1.95034087e-01 2.16487154e-01 -8.66929069e-03 -1.58300251e-01
      -4.78753522e-02 -1.43791676e-01 -3.99493612e-02 6.07138097e-01
      3.00665468e-01 -1.64186642e-01 -1.39657781e-03 -3.23306143e-01
      -1.50231838e-01 -2.22504660e-01 1.79766566e-02 -5.49912490e-02
      -5.98499253e-02 -1.48938015e-01 8.89689475e-02 1.11081913e-01
      3.18280160e-02 -3.60573888e-01 -1.82142526e-01 -5.74160330e-02
      1.41700149e-01 -3.27764452e-01 -4.02815580e-01 -7.55432844e-02
      -3.87911409e-01 2.85295010e-01 -4.71662223e-01 3.73580977e-02
      -3.12036108e-02 3.61151844e-01 -2.10602224e-01 -3.50647271e-01
      -2.41935812e-03 6.76944926e-02 -1.17027462e-01 -2.06442773e-01
      2.98993349e-01 -5.81252813e-01 -1.91078439e-01 6.87210560e-02</_>
    <_>
      -5.75157464e-01 -2.22415537e-01 4.81377572e-01 -6.34584203e-02
      6.96031330e-03 2.68119603e-01 9.95295420e-02 -2.59517342e-01
      -6.49454355e-01 1.92061752e-01 2.83496797e-01 5.27760945e-02
      -2.17424914e-01 6.31370842e-01 2.24388242e-01 -1.53431311e-01
      -2.85761267e-01 7.54032582e-02 1.65249586e+00 8.31488192e-01
      6.33323729e-01 9.24492180e-01 -5.16735017e-01 1.01927745e+00
      8.45985413e-01 -5.56356646e-02 -1.36860073e-01 6.86119646e-02
      -2.37820614e-02 -4.54480767e-01 3.44812244e-01 7.62864761e-03
      -3.27311307e-01 -2.08505639e-03 -3.26325357e-01 1.04908013e+00
      -4.22247976e-01 9.95675102e-02 4.58827794e-01 2.96346903e-01
      -8.25044155e-01 -3.08545798e-01 -3.66560370e-02 -7.06540704e-01
      1.56650618e-01 -1.49122968e-01 2.03910589e-01 -1.41033128e-01
      -4.09690410e-01 -5.99181712e-01 -8.97439837e-01 1.00524843e-01
      -2.35817675e-02 -2.94268250e-01 -1.32570520e-01 -7.39875436e-02
      5.90141177e-01 4.21370804e-01 1.17317930e-01 -9.72122252e-02
      -1.30212009e-01 -1.55361325e-01 -2.95816481e-01 7.57269800e-01
      -2.19050169e-01 -1.46190733e-01 2.09201649e-02 -9.43207264e-01
      2.93503135e-01 -1.10968694e-01 8.87419879e-02 -3.21128070e-02
      -2.84777582e-01 -1.10450415e-02 -9.67023894e-02 1.52993739e-01
      1.03536820e+00 -1.45478630e+00 3.50235164e-01 -5.01597941e-01
      1.19134197e-02 -3.84026766e-01 1.23555195e-02 1.56726129e-02
      -4.47311044e-01 4.03762097e-04 -7.15102911e-01 -4.25042436e-02
      -1.27239689e-01 6.49442077e-01 -1.27545789e-01 -4.94994760e-01
      1.62381399e-02 1.10996246e-01 -1.79480433e-01 1.60280883e-01
      2.42795229e-01 -2.31850237e-01 4.07729030e-01 5.46465442e-02</_>
    <_>
      -2.04965568e+00 -6.02779165e-02 1.23003292e+00 7.36587286e-01
      9.76885200e-01 -5.88906586e-01 1.98850855e-01 4.38634485e-01
      -1.15360761e+00 7.85236716e-01 1.18373919e+00 -6.06493533e-01
      -7.14534614e-03 2.42322817e-01 -2.11298513e+00 -1.26797771e+00
      -1.18288115e-01 5.80140091e-02 2.71198249e+00 6.22804344e-01
      1.94463700e-01 1.49821579e+00 -3.60921144e-01 8.95899355e-01
      1.11731541e+00 -7.21160293e-01 -2.23637700e-01 -6.21539414e-01
      1.58099294e-01 -1.07832468e+00 -7.54058640e-03 6.92450047e-01
      -5.49137354e-01 -4.87722121e-02 7.19121238e-03 1.75909925e+00
      2.98026651e-01 3.89149897e-02 4.39541370e-01 1.05337763e+00
      -4.63255286e-01 -6.70113266e-01 -6.60796940e-01 -2.34234595e+00
      9.35722813e-02 -5.53034484e-01 6.71577930e-01 -9.57771018e-02
      -1.40786961e-01 -6.38483286e-01 -1.36377841e-01 -3.21850665e-02
      3.58030617e-01 -1.78305626e-01 -1.97337493e-01 -2.65869617e-01
      6.98695838e-01 7.09232688e-01 1.37443066e-01 1.19710177e-01
      8.58756840e-01 1.52486235e-01 -2.59537071e-01 1.02693832e+00
      2.87737429e-01 -2.44642451e-01 2.04081666e-02 -1.46754789e+00
      2.52750248e-01 7.00461641e-02 6.93065673e-03 -7.36614242e-02
      -2.32159540e-01 -3.47494155e-01 5.86584866e-01 1.01051100e-01
      1.06947529e+00 -7.73440003e-01 -8.01547393e-02 -4.39764410e-01
      1.00925304e-01 -7.46007144e-01 -8.11413109e-01 1.00885145e-01
      -3.08903903e-01 1.85522482e-01 -8.72144878e-01 1.01707801e-01
      -2.76973009e-01 8.81965518e-01 -2.14062795e-01 -5.78719854e-01
      8.94418359e-03 2.60341674e-01 1.60954855e-02 -4.76412326e-02
      1.77268848e-01 -1.28879404e+00 5.64096928e-01 5.72350100e-02</_>
    <_>
      -1.20492661e+00 -3.30866367e-01 8.83907020e-01 4.53542888e-01
      1.40924382e+00 -4.20121789e-01 2.06085235e-01 2.41858333e-01
      -4.63944197e-01 6.51764393e-01 3.70704532e-01 -1.76284835e-01
      -1.26320675e-01 4.78233725e-01 -9.51959431e-01 -1.23621237e+00
      -1.49038389e-01 -2.62019783e-02 2.02509356e+00 8.06495026e-02
      -2.35563710e-01 1.59620368e+00 3.63370590e-02 7.45290041e-01
      7.65861869e-01 6.42460704e-01 -1.92421526e-01 -9.08440590e-01
      -4.91627753e-02 -8.92899394e-01 4.38408218e-02 3.98546696e-01
      -4.49465424e-01 -8.70524347e-02 -8.59154537e-02 1.44388628e+00
      1.49225369e-01 -6.37131482e-02 3.90503794e-01 9.21493828e-01
      -4.10386771e-01 -9.87458646e-01 -5.07485390e-01 -2.03737926e+00
      -7.33221089e-03 -6.35983329e-03 1.03853989e+00 -1.52852818e-01
      -1.27373084e-01 -4.23603922e-01 -1.81584403e-01 2.23979801e-02
      1.49883211e-01 -4.97190095e-02 -1.69680163e-01 -7.23820552e-02
      2.63291836e-01 8.26221883e-01 8.97983164e-02 1.02726839e-01
      -9.36526060e-03 -1.32834241e-02 2.16720462e-01 8.01818848e-01
      3.32838863e-01 -3.08489531e-01 -2.75642462e-02 -1.42876565e+00
      -7.52801597e-02 3.80455464e-01 -2.06654631e-02 -1.59070179e-01
      -1.48912638e-01 -4.84094858e-01 4.55029428e-01 2.48402402e-01
      6.07119739e-01 -9.37389255e-01 1.66653499e-01 -4.31594729e-01
      4.75066863e-02 -5.23927569e-01 -5.19252241e-01 -1.62062064e-01
      -7.86622167e-01 6.95168793e-01 -5.41497946e-01 3.24537665e-01
      -3.29582006e-01 6.54403090e-01 -7.90827256e-03 -4.74499702e-01
      3.33571173e-02 1.18633039e-01 -6.08583493e-03 -3.76946539e-01
      7.92978287e-01 -1.57398391e+00 1.66367859e-01 6.13672212e-02</_>
    <_>
      -1.37694627e-01 -7.21531093e-01 -3.66951287e-01 -2.32658073e-01
      2.16701198e+00 -7.75681436e-01 7.55326897e-02 6.58308327e-01
      1.57563424e+00 9.94032264e-01 -5.60934067e-01 -4.28470105e-01
      -1.04420662e-01 2.70935655e-01 6.86220407e-01 1.52922511e-01
      -4.64080386e-02 6.05995767e-02 1.54625475e+00 1.36087656e-01
      3.85687768e-01 8.29142928e-01 -6.45637989e-01 -3.83012265e-01
      -2.24934310e-01 9.77138638e-01 -7.65496969e-01 5.08823097e-01
      -2.27679417e-01 -2.26120576e-01 3.57232273e-01 6.50748253e-01
      4.86243725e-01 -2.58551419e-01 -6.28468812e-01 2.80838817e-01
      -4.62451845e-01 7.32372236e-03 2.17104070e-02 9.13990319e-01
      -6.95991442e-02 -1.45451677e+00 -1.02425031e-01 4.86787409e-01
      -2.06611082e-01 3.77702832e-01 -4.94491607e-01 -6.00524247e-02
      -1.30613908e-01 2.09973231e-01 -2.05890045e-01 -2.16096267e-02
      3.42563480e-01 -1.64953247e-02 -6.01533473e-01 -3.16206664e-01
      -2.43770361e-01 1.24256179e-01 4.38152514e-02 -4.64446515e-01
      -7.91096091e-01 -3.80829811e-01 6.87297285e-01 3.57418895e-01
      1.48909763e-01 -4.57935870e-01 -2.59540174e-02 1.02537721e-01
      -5.69999635e-01 -5.26189983e-01 -2.61809260e-01 -2.79441655e-01
      1.50442012e-02 -5.57480633e-01 5.05545847e-02 -4.27122682e-01
      -7.52228856e-01 -8.65442604e-02 -5.81870556e-01 -1.23242408e-01
      -1.86348274e-01 -3.27128768e-01 -2.53699362e-01 3.58877718e-01
      -3.09640527e-01 8.56895924e-01 -7.62529597e-02 8.21443945e-02
      1.05857134e-01 5.41836321e-01 -5.58285773e-01 3.32635820e-01
      1.17140189e-02 3.51309478e-01 8.77215937e-02 -4.35997933e-01
      5.57826519e-01 2.89860427e-01 -7.33392417e-01 2.18975861e-02</_>
    <_>
      -1.83713686e+00 5.40737696e-02 9.07454014e-01 7.64276266e-01
      1.28039086e+00 -9.93414402e-01 2.74203241e-01 -2.23981678e-01
      -1.01710200e+00 9.92394388e-01 1.70956910e+00 -8.98757875e-01
      -3.63703668e-02 4.39039320e-01 -1.58419037e+00 -1.54845631e+00
      -2.46285990e-01 5.00338450e-02 2.41387701e+00 1.24276531e+00
      2.29334366e-02 9.22913015e-01 -1.09548859e-01 5.75451791e-01
      1.20742404e+00 6.44357622e-01 8.81164819e-02 -7.32280791e-01
      8.56334642e-02 -1.30430067e+00 3.22727412e-01 5.04415333e-01
      -4.40263659e-01 5.03570884e-02 -1.57948434e-01 1.16501868e+00
      2.87356198e-01 1.74778879e-01 -9.75859985e-02 1.36874688e+00
      -6.43634439e-01 -9.36930358e-01 -4.41323340e-01 -2.43967414e+00
      5.64927936e-01 -1.41885672e-02 6.94197953e-01 -1.94471315e-01
      -1.88257441e-01 -7.38263786e-01 -2.03126654e-01 2.19579171e-02
      6.27980307e-02 -6.12758026e-02 -2.69951135e-01 1.77090436e-01
      -6.12903526e-03 1.15936112e+00 2.00624187e-02 2.25301951e-01
      8.65885377e-01 -6.31478578e-02 -1.31341949e-01 6.01598740e-01
      -1.46106854e-01 -2.77824968e-01 -6.43825009e-02 -1.38797951e+00
      2.57018715e-01 5.52812815e-01 -1.34581875e-03 -1.67068303e-01
      -1.15894407e-01 -3.25072825e-01 8.33299339e-01 1.02060258e-01
      4.30470079e-01 -1.15930247e+00 2.25994855e-01 -4.85179991e-01
      -7.01809227e-02 -7.93443084e-01 -4.73954529e-01 -7.59255365e-02
      -2.60728389e-01 7.77940154e-01 -7.34662771e-01 4.02117342e-01
      -1.93150863e-01 8.04524779e-01 -4.08481151e-01 -7.68728971e-01
      3.24360020e-02 2.07563132e-01 2.02586297e-02 -6.26885712e-01
      7.50152469e-01 -1.89289737e+00 6.40546322e-01 9.85231344e-03</_>
    <_>
      -7.95798674e-02 7.71266446e-02 -3.59307885e-01 -5.16603947e-01
      9.42950368e-01 -7.07018137e-01 2.06599817e-01 -1.58445090e-02
      5.79463243e-01 -1.06045850e-01 -4.28391337e-01 -7.67506599e-01
      -7.84157738e-02 3.22885841e-01 5.31630933e-01 1.94828585e-01
      1.34516805e-01 -3.95379178e-02 8.12225044e-01 -3.87445034e-04
      4.24721003e-01 9.56560791e-01 -1.53670207e-01 2.86336634e-02
      2.01243490e-01 6.95896298e-02 -9.25214767e-01 3.70514803e-02
      1.05701732e-02 1.77119374e-01 -3.60086054e-01 5.09119481e-02
      3.38077933e-01 -6.71062395e-02 -3.00800681e-01 1.26293138e-01
      -3.60681832e-01 -1.91559568e-02 3.99915129e-01 3.29481572e-01
      -5.98184653e-02 -5.38917959e-01 -2.04553306e-01 5.68046808e-01
      -1.68607369e-01 1.29031196e-01 -7.47363925e-01 3.76116000e-02
      2.62081146e-01 2.09581658e-01 2.29896516e-01 2.37110965e-02
      2.93687731e-01 1.03345372e-01 -2.35279158e-01 -6.12240672e-01
      -2.31055886e-01 -4.75671172e-01 5.42728975e-02 -1.68896899e-01
      -3.49310696e-01 -4.71468735e-03 4.59495366e-01 4.34364021e-01
      -6.03964813e-02 -1.93624273e-01 6.65860996e-02 7.25758016e-01
      -3.64260256e-01 -2.56322265e-01 7.80606344e-02 -6.60380051e-02
      7.75186047e-02 -2.47147307e-01 -1.63769096e-01 -2.31699392e-01
      4.70115006e-01 -2.71348625e-01 -3.82017463e-01 2.43408412e-01
      3.83093394e-02 6.75306693e-02 -1.41307488e-01 -9.02606621e-02
      -2.79318660e-01 3.86589259e-01 -3.11444938e-01 1.16072483e-01
      2.18587473e-01 -2.86547542e-01 -4.11483169e-01 3.58136520e-02
      1.08016413e-02 1.24403872e-01 3.53586338e-02 -1.36602744e-01
      2.71904558e-01 5.77427208e-01 -3.21803510e-01 -4.59093694e-03</_>
    <_>
      1.27944708e-01 -5.27178824e-01 5.00989139e-01 -1.72393128e-01
      1.06112480e+00 1.40097477e-02 5.46724908e-02 4.21927333e-01
      5.18869698e-01 6.52623713e-01 -5.38567722e-01 -7.82689333e-01
      -8.72801393e-02 6.99367702e-01 -3.38905364e-01 -5.31381845e-01
      -3.97096843e-01 2.81841960e-02 2.55658317e+00 2.78948069e-01
      3.53985816e-01 1.35472083e+00 -9.01159197e-02 8.61722052e-01
      1.40964341e+00 1.33292818e+00 -6.15753353e-01 -1.79641140e+00
      -7.87589028e-02 -3.14072400e-01 1.18156302e+00 4.45537657e-01
      3.60298514e-01 -1.46644279e-01 -2.87179887e-01 3.04294682e+00
      2.47908980e-02 -1.76476270e-01 1.98895987e-02 1.19540668e+00
      -6.29487991e-01 -1.74726892e+00 -8.86900604e-01 -8.77256751e-01
      5.99050596e-02 -3.97076547e-01 6.02035284e-01 -1.34901345e-01
      -5.83558269e-02 -3.73439342e-01 -5.01808643e-01 -9.78352875e-03
      1.41553313e-01 -5.10245204e-01 -2.38067627e-01 -4.86133128e-01
      5.20403862e-01 6.62900031e-01 -1.46186939e-02 -2.86730349e-01
      -5.07912934e-01 -9.76135284e-02 2.44330280e-02 9.44742203e-01
      1.58754632e-01 -5.22152901e-01 5.09984866e-02 -1.46720004e+00
      -9.04121529e-03 -3.22511643e-01 -1.18000083e-01 -2.03103051e-01
      -1.28076375e-01 -3.77483666e-01 -2.71289587e-01 -6.77757487e-02
      1.44060516e+00 -1.15741587e+00 -4.62135524e-01 -5.31428277e-01
      -5.41507863e-02 -2.59141594e-01 -3.34352583e-01 -2.98354719e-02
      -1.03503954e+00 4.47872460e-01 -5.31974614e-01 8.40289816e-02
      -5.58245555e-02 9.67441380e-01 -3.42059106e-01 -7.48560488e-01
      -5.91331720e-03 -2.12747246e-01 -1.53905377e-01 -1.69193596e-01
      7.34676123e-01 -1.08411324e+00 -7.38927722e-02 2.77958252e-02</_>
    <_>
      -2.22993970e-01 -3.01426888e-01 2.26708785e-01 -5.87288857e-01
      1.22483122e+00 -3.12118500e-01 -9.85239749e-04 6.15684867e-01
      6.15930080e-01 5.84184706e-01 -4.22370195e-01 -1.41987264e-01
      -1.73017859e-01 4.58577454e-01 1.96316198e-01 2.32942685e-01
      -1.62501737e-01 8.82575735e-02 1.91009521e+00 -1.57447308e-01
      3.65690410e-01 4.60527956e-01 1.54902741e-01 8.50818336e-01
      1.13201618e+00 2.58905947e-01 -9.85383034e-01 -3.74331325e-01
      1.83007028e-02 -3.12493056e-01 1.39638150e+00 2.95370549e-01
      2.12176051e-02 -1.64926156e-01 -3.05256128e-01 1.80290794e+00
      9.97621194e-02 4.45348099e-02 -2.47685492e-01 8.76314819e-01
      -6.53387010e-01 -1.04149783e+00 -3.17514360e-01 -1.33605197e-01
      -4.12997119e-02 -2.46374398e-01 8.41312885e-01 -1.08802594e-01
      8.20819512e-02 -3.85259420e-01 -7.82245755e-01 8.93745199e-02
      -9.08410847e-02 -4.75163013e-01 -1.04110964e-01 -9.61162522e-03
      3.91551740e-02 3.27667817e-02 -4.82795946e-03 -5.17769039e-01
      -4.20551658e-01 8.90846401e-02 5.95283844e-02 3.96205932e-01
      3.59292656e-01 -3.10646772e-01 -2.19890289e-02 -1.12490714e+00
      -1.05772335e-02 -5.13122439e-01 1.24906600e-02 -1.70680419e-01
      -1.65173978e-01 -2.05200657e-01 -7.40614712e-01 -2.10973695e-01
      1.01387739e+00 -1.04477441e+00 -6.03079081e-01 -5.20159781e-01
      -1.44972920e-01 -2.97187492e-02 -2.05719694e-01 8.11128989e-02
      -3.40035766e-01 1.09298840e-01 -6.58853769e-01 3.15868892e-02
      4.61597554e-03 9.58049297e-01 -3.51802677e-01 -2.55065531e-01
      1.95987988e-02 -7.40774795e-02 -1.81206897e-01 -4.97768641e-01
      3.98621112e-01 -1.05469078e-01 8.94326419e-02 5.29974923e-02</_>
    <_>
      -4.40233797e-02 -9.32609104e-03 2.72260606e-01 9.30191219e-01
      1.12455070e+00 -5.23622572e-01 3.51768523e-01 -3.85041535e-02
      7.83234298e-01 1.51496899e+00 3.50394487e-01 -2.32641530e+00
      -8.60810727e-02 4.19320554e-01 -2.34841394e+00 -4.82648402e-01
      -2.11981073e-01 -9.85935479e-02 2.12084746e+00 -8.75096560e-01
      -8.13959837e-02 1.60085726e+00 -7.33530462e-01 4.58756328e-01
      1.10596251e+00 1.94712985e+00 9.45150137e-01 -1.57877457e+00
      -5.08982897e-01 -3.09417933e-01 -2.96314269e-01 7.32413292e-01
      -3.37377489e-01 -1.00580230e-02 -5.40164888e-01 1.46885753e+00
      -1.10634305e-01 1.24977402e-01 1.84742481e-01 1.64017510e+00
      -7.19205320e-01 -9.47860897e-01 -5.68675458e-01 -8.24484289e-01
      -2.33012214e-01 3.52949411e-01 1.63694167e+00 -7.16884136e-02
      -2.90356845e-01 -2.87223488e-01 -3.68601918e-01 -8.75737593e-02
      -2.35242605e-01 -3.26797962e-02 -5.36705017e-01 -5.69559455e-01
      -2.33152896e-01 1.56308532e+00 1.21851444e-01 7.15574101e-02
      4.87028807e-01 -6.78465128e-01 6.14957929e-01 2.92082191e-01
      1.38524190e-01 -6.62982404e-01 -2.87442319e-02 -4.57637519e-01
      -6.66850880e-02 5.86181641e-01 -1.78515509e-01 -1.17707692e-01
      -2.52166074e-02 -7.89667428e-01 1.08402491e+00 -9.12220359e-01
      5.82823217e-01 -7.08454192e-01 5.18313706e-01 -2.53920406e-01
      -9.33551133e-01 -5.59519231e-01 -4.31250662e-01 -4.23128635e-01
      -2.10630491e-01 5.20009995e-01 -7.35642791e-01 3.22736442e-01
      6.87499270e-02 9.05478776e-01 -1.26657292e-01 -1.00879228e+00
      2.05773842e-02 -2.01180920e-01 -1.27338275e-01 -5.45500696e-01
      1.07752419e+00 -1.08278275e+00 -2.57758439e-01 3.93725820e-02</_>
    <_>
      -3.62437814e-01 -2.58584917e-01 5.92719972e-01 -5.62155485e-01
      -7.12147132e-02 -1.35046557e-01 8.20198879e-02 3.33131075e-01
      1.11412376e-01 -3.88618678e-01 -1.12635292e-01 -5.43258607e-01
      -1.53167084e-01 3.32920849e-01 4.77174491e-01 -2.23293856e-01
      -6.29149899e-02 -2.57849898e-02 6.06778264e-01 4.85282630e-01
      2.43655130e-01 7.19539106e-01 -2.94409513e-01 4.20167595e-01
      1.56966314e-01 4.79308009e-01 -2.22373292e-01 -2.97619432e-01
      -3.10059130e-01 6.58360310e-03 1.29093975e-01 -5.56294680e-01
      -1.24052800e-02 -7.57339075e-02 -3.98601405e-02 1.24266595e-01
      1.84310079e-02 -2.09766421e-02 1.20650426e-01 2.37465978e-01
      -6.78686738e-01 5.21593653e-02 5.17339399e-03 -3.41244936e-01
      8.24592635e-02 1.72181115e-01 -1.73823297e-01 -1.39442761e-03
      -1.52480360e-02 -1.86773613e-01 -2.75853276e-01 6.60671368e-02
      5.09261549e-01 -9.21278298e-02 -3.06764096e-01 -6.16950169e-02
      3.21377754e-01 -6.06796183e-02 5.67996576e-02 -4.05002773e-01
      -5.87189645e-02 -1.31622195e-01 4.60999161e-01 3.40813518e-01
      -1.04282908e-01 -2.94161856e-01 -2.77268030e-02 -1.26441404e-01
      2.26699218e-01 -3.25806392e-03 5.21331765e-02 2.89226864e-02
      -1.66321188e-01 -1.38212100e-01 -4.93342966e-01 -2.70997249e-02
      4.22701806e-01 -3.99386078e-01 2.37011775e-01 -1.86204642e-01
      1.01620771e-01 -5.40253043e-01 -1.95432186e-01 -4.97128554e-02
      -3.21953833e-01 3.34280342e-01 -1.09414002e-02 7.48267621e-02
      5.37298508e-02 6.64311647e-01 -7.67945424e-02 1.39123082e-01
      4.74707410e-02 9.86752138e-02 5.52022867e-02 -4.23604213e-02
      3.74700963e-01 -2.78321743e-01 3.20900381e-01 2.35174857e-02</_>
    <_>
      -3.48783642e-01 -3.31820473e-02 2.12731138e-01 -8.10934007e-02
      -5.37265465e-02 1.38738304e-01 2.88684350e-02 -1.29006654e-01
      -1.86699584e-01 9.47976038e-02 1.65387802e-02 1.02739483e-01
      -1.21684574e-01 1.78045735e-01 5.11913113e-02 -4.80574481e-02
      7.21409172e-02 -6.27985597e-02 -4.61659059e-02 4.53339547e-01
      3.01353246e-01 -8.11003447e-02 -3.35915983e-02 1.41101643e-01
      4.35627960e-02 1.08085960e-01 5.11849634e-02 2.07362399e-01
      -1.36987194e-01 -1.86053440e-01 1.34336084e-01 1.12292379e-01
      -3.85105498e-02 2.88391523e-02 4.17913757e-02 2.26425827e-01
      2.38530561e-02 2.95055844e-02 1.27736345e-01 -2.83208758e-01
      -2.38323033e-01 7.85829946e-02 2.95169372e-02 1.72790468e-01
      -4.25946079e-02 1.54999733e-01 -1.89967439e-01 -1.78194586e-02
      -1.05889454e-01 -1.97392270e-01 -1.82910860e-01 -2.88883573e-03
      -2.66672999e-01 -8.43752921e-02 -6.63743392e-02 -5.60664907e-02
      1.62669405e-01 3.49510834e-02 -4.66953591e-02 -2.41338126e-02
      -2.73932777e-02 7.58218169e-02 -6.77416176e-02 -4.93291914e-02
      -2.34180853e-01 -6.69036508e-02 -4.72076470e-03 -1.83029398e-01
      2.44009227e-01 1.91323966e-01 2.20660735e-02 3.83191928e-02
      -4.49364372e-02 6.26099808e-03 -2.27639414e-02 -8.10378566e-02
      4.66383278e-01 -3.06732833e-01 4.06925231e-01 -2.85181999e-01
      -7.86807761e-02 7.94529542e-02 2.06495553e-01 6.65816814e-02
      -7.42860734e-02 -8.71135443e-02 2.42640581e-02 -1.97130978e-01
      -1.03675120e-01 -1.11534551e-01 1.50177985e-01 -2.92180866e-01
      1.79703217e-02 -6.82153776e-02 7.44563863e-02 -1.54777546e-03
      -1.28144994e-01 1.54588580e-01 1.75597996e-01 -5.15512899e-02</_>
    <_>
      -1.28057861e+00 1.01666272e-01 4.58648384e-01 2.45161414e-01
      9.01782438e-02 -2.85908401e-01 -6.58327192e-02 2.82158345e-01
      -3.75291407e-01 8.01620781e-02 3.01977754e-01 -1.03990920e-01
      -2.57220473e-02 -6.36443403e-03 -9.90920663e-01 -2.76510298e-01
      1.34915441e-01 1.33583266e-02 4.17262763e-01 5.72342932e-01
      2.45046139e-01 1.60416186e-01 -3.17059278e-01 -1.14678936e-02
      4.23618942e-01 -3.33326876e-01 3.25002134e-01 1.78685993e-01
      6.70369714e-02 -6.43743396e-01 -8.98838758e-01 2.38249838e-01
      -2.71844536e-01 4.38703261e-02 1.73889622e-01 7.32314110e-01
      6.48451820e-02 2.90734600e-02 7.86841065e-02 -6.10692352e-02
      4.03374992e-02 -3.28447074e-01 -1.80871427e-01 -5.69326103e-01
      1.87370013e-02 1.58923149e-01 -3.06605548e-03 1.80373713e-02
      -1.43906474e-01 -3.47156972e-01 2.33433023e-01 -1.60998926e-01
      8.21145996e-02 7.36969784e-02 -3.64485458e-02 -2.62354225e-01
      6.34359002e-01 1.24727264e-01 6.95984960e-02 9.57457907e-03
      5.71721852e-01 1.92822203e-01 2.10071616e-02 7.06772581e-02
      -4.47951891e-02 -3.34661044e-02 3.27126160e-02 -8.02995145e-01
      2.43835360e-01 -3.82245183e-02 1.14489920e-01 -1.00683002e-02
      -1.28605381e-01 -2.12891608e-01 4.06210780e-01 -9.95856822e-02
      7.99312890e-01 -3.09608370e-01 3.00197393e-01 -2.64852375e-01
      1.95831239e-01 -3.38322967e-01 -6.66144267e-02 3.74770463e-02
      1.96439996e-01 -1.25538528e-01 -2.45616622e-02 -1.70860752e-01
      -2.40786076e-01 2.48476595e-01 -1.39672562e-01 2.86083333e-02
      -1.14477864e-02 3.20792459e-02 2.47463971e-01 -7.62814879e-02
      -6.20722678e-03 -1.14242114e-01 5.82184136e-01 -2.97736260e-03</_>
    <_>
      -4.02786970e-01 -1.11092553e-01 1.55459762e-01 5.70566952e-02
      2.57967740e-01 -2.91765928e-01 -7.32311532e-02 8.00145641e-02
      -4.21158262e-02 1.05703868e-01 3.55756842e-02 8.58426839e-02
      -5.66842072e-02 4.15151194e-02 -2.76362300e-01 -3.07922065e-01
      7.39882588e-02 -5.03607467e-02 1.44056767e-01 -1.21811152e-01
      6.96381778e-02 1.57189682e-01 1.09184586e-01 -1.55704319e-01
      1.83582038e-01 1.81311324e-01 2.20676467e-01 6.75271526e-02
      -4.05546911e-02 -3.86817575e-01 -5.04391313e-01 9.66836363e-02
      -1.84312671e-01 3.79379056e-02 -1.46475788e-02 3.02908093e-01
      -4.67765033e-02 -1.61570907e-02 1.45764038e-01 -1.38339370e-01
      1.05807781e-01 -1.76549658e-01 -7.44486600e-02 -3.86089772e-01
      -1.24100611e-01 2.07666457e-01 5.75137557e-03 -4.74461876e-02
      3.26745398e-02 -1.66031018e-01 7.46922791e-02 -4.34062481e-02
      8.77065137e-02 1.71585426e-01 -5.19576445e-02 5.15295975e-02
      1.16962016e-01 1.59500599e-01 1.24289012e-02 8.05509463e-02
      -2.15280071e-01 1.60145894e-01 1.72761634e-01 5.31891733e-02
      -3.45267355e-02 -8.11414123e-02 -4.81396019e-02 -2.19254330e-01
      1.67450886e-02 6.80192113e-02 3.80743742e-02 -1.11558817e-01
      -5.60829826e-02 -2.70094663e-01 2.37873763e-01 1.84192285e-01
      3.61309022e-01 -2.04370722e-01 2.86306262e-01 -6.14585802e-02
      1.18888430e-01 -1.03337020e-01 -4.80542369e-02 -9.78500918e-02
      1.56727750e-02 8.65255371e-02 4.86629792e-02 2.32487172e-01
      -2.42027700e-01 1.57838538e-01 -5.06881997e-02 -1.30818471e-01
      1.48358960e-02 8.35163817e-02 1.16686173e-01 -9.35161635e-02
      1.49209321e-01 -2.50879914e-01 2.50443339e-01 4.11179997e-02</_>
    <_>
      -1.26380488e-01 -4.30487096e-01 -5.67575276e-01 -5.69671355e-02
      1.18796790e+00 -7.89538562e-01 -1.39790833e-01 3.26297224e-01
      1.21080434e+00 5.31043530e-01 -4.91236866e-01 -2.76917696e-01
      -2.79575475e-02 1.98022068e-01 1.39426410e-01 4.29433137e-01
      1.16078950e-01 -6.71144724e-02 -1.25860944e-02 2.68169623e-02
      3.81732255e-01 -9.60525051e-02 -3.42188865e-01 -7.44065881e-01
      -4.73681211e-01 5.29178023e-01 -4.72435951e-01 8.91566038e-01
      -2.17605874e-01 -4.09200341e-01 -7.15781972e-02 3.11107278e-01
      4.63503748e-01 -2.56249726e-01 -4.41733748e-01 -1.15815602e-01
      -1.72088340e-01 -3.63588035e-02 -2.01224297e-01 5.90871811e-01
      7.85077363e-02 -5.90792298e-01 1.22213148e-01 1.09688973e+00
      -3.90187383e-01 4.29478198e-01 -9.37421381e-01 3.16787735e-02
      7.94848725e-02 4.18798000e-01 8.84397998e-02 -2.37043947e-01
      1.79266751e-01 -1.64813921e-01 -2.96619862e-01 -2.53131896e-01
      -4.11215931e-01 1.07334226e-01 -3.69255543e-02 -3.43294829e-01
      -3.76136363e-01 -6.75938204e-02 7.25726008e-01 -9.98378322e-02
      -5.07136211e-02 -9.75203440e-02 -3.22044119e-02 3.96073729e-01
      -4.59320873e-01 -2.22117558e-01 -7.56821781e-02 -1.51980579e-01
      7.74282962e-02 -2.99746096e-01 -1.37781322e-01 -2.60206580e-01
      -6.60682261e-01 1.34531766e-01 -8.37309808e-02 3.78013104e-02
      -4.36239809e-01 3.63307656e-03 1.82697445e-01 2.39493743e-01
      1.15367368e-01 6.50258899e-01 9.38069448e-02 -2.78973617e-02
      1.45756945e-01 1.03319868e-01 -1.78097799e-01 1.64933085e-01
      4.38452661e-02 2.77623355e-01 1.67371243e-01 -3.08126248e-02
      4.98857498e-01 8.54167700e-01 -3.00772339e-01 -1.31280020e-01</_>
    <_>
      -1.31132138e+00 5.90740070e-02 1.71439409e-01 2.89862514e-01
      1.46223754e-01 -7.71011591e-01 1.13503629e-04 -2.09635377e-01
      -1.57882378e-01 2.68050909e-01 8.02256465e-01 -7.04208091e-02
      -6.20120717e-03 4.30048704e-02 -7.57902861e-01 -2.69589901e-01
      -1.27315342e-01 2.56116968e-02 3.36034089e-01 8.75614405e-01
      3.09379131e-01 -4.67892617e-01 -2.12780565e-01 -3.66606593e-01
      4.27331299e-01 7.15950012e-01 3.20607156e-01 1.25137031e-01
      1.46748468e-01 -8.50797892e-01 -8.91980290e-01 1.85314909e-01
      -4.95091416e-02 1.36501253e-01 -3.40776220e-02 4.26289052e-01
      1.10419514e-02 1.85757563e-01 -2.31240317e-01 3.09688561e-02
      -7.39183053e-02 -2.20279410e-01 -1.35847867e-01 -4.74125713e-01
      3.49955559e-01 3.21779460e-01 -1.35115415e-01 -4.04610224e-02
      -2.26899669e-01 -3.95847648e-01 3.02257717e-01 -9.56983268e-02
      -3.06510646e-02 2.23932192e-01 -9.26128775e-02 1.81201071e-01
      -1.36977494e-01 6.10241771e-01 2.67595220e-02 2.14603752e-01
      7.09433973e-01 6.55511245e-02 2.76211612e-02 -1.62218899e-01
      -4.54801112e-01 2.02829130e-02 -9.88603458e-02 -6.17638111e-01
      2.20176652e-01 2.42135808e-01 2.38903575e-02 -1.12150617e-01
      -3.54901887e-02 -6.57022744e-02 4.36083168e-01 1.50920510e-01
      3.65047663e-01 -3.48021179e-01 2.43562058e-01 -3.64511430e-01
      7.69654140e-02 -3.95129889e-01 8.80741030e-02 -6.40204325e-02
      2.06282198e-01 5.27305484e-01 9.83663127e-02 6.71187565e-02
      -1.03123039e-01 1.74195707e-01 -3.89987886e-01 -1.88745081e-01
      5.03307879e-02 6.77004829e-02 2.99867362e-01 -4.10960615e-01
      2.93667644e-01 -6.82431698e-01 6.17316246e-01 -2.54615885e-03</_>
    <_>
      1.03559665e-01 1.19055979e-01 -4.11830068e-01 -1.84333816e-01
      7.59089112e-01 -5.39313495e-01 -2.24170983e-02 -7.37721026e-02
      6.19960904e-01 -2.50228554e-01 -6.15238667e-01 -4.42373067e-01
      -7.32174963e-02 8.77368376e-02 2.80837901e-02 4.32134241e-01
      1.63870618e-01 -1.64471418e-01 -1.71435550e-01 -1.97538018e-01
      2.66908556e-01 2.95000494e-01 9.02833045e-02 -3.70573342e-01
      -3.40367526e-01 4.46821004e-01 -6.78208232e-01 4.92969692e-01
      -1.21589884e-01 1.18562378e-01 -7.25984335e-01 1.27622653e-02
      4.78056222e-01 5.79916406e-04 -2.27668017e-01 -1.92147508e-01
      -2.39582747e-01 -3.05671543e-02 1.89876869e-01 6.64693043e-02
      2.07072794e-02 -3.21852714e-01 8.02818909e-02 1.12071729e+00
      -3.26903790e-01 1.61480516e-01 -5.93725681e-01 3.58826891e-02
      2.57621616e-01 3.21940184e-01 1.15143463e-01 -1.29753694e-01
      7.06624240e-02 1.63483828e-01 -2.22969651e-01 -4.71791714e-01
      -6.44224107e-01 -3.33995819e-01 -2.31909398e-02 -1.08119160e-01
      -3.80337059e-01 3.06720287e-02 5.51333129e-01 -1.06576890e-01
      -1.80483520e-01 -2.34556757e-03 8.76614638e-03 8.61353695e-01
      -8.58424306e-02 1.02770664e-01 -2.96317227e-02 -2.03342102e-02
      1.31189808e-01 -1.68854192e-01 -8.21483284e-02 -1.87995508e-02
      2.01992497e-01 7.43278582e-03 -1.33600775e-02 2.72170335e-01
      -4.56552237e-01 3.34222913e-01 3.91414970e-01 -9.90213230e-02
      9.72522199e-02 3.28207225e-01 -1.34633899e-01 3.94925326e-02
      2.50997365e-01 -4.35412914e-01 -8.52636546e-02 -1.09760083e-01
      2.56817024e-02 -5.05283549e-02 1.20673023e-01 5.41699901e-02
      8.01729113e-02 8.58285606e-01 -1.02298059e-01 -5.63853346e-02</_>
    <_>
      -1.47759140e-01 -3.58211622e-02 5.01954854e-02 2.25279499e-02
      -4.80029136e-02 6.95070028e-02 -1.06041431e-01 1.33901536e-01
      1.85034946e-01 5.45724668e-02 -1.95405856e-01 -4.52231653e-02
      -3.33849676e-02 1.54956639e-01 -9.74959061e-02 -3.90723944e-02
      -1.75872788e-01 -2.93927081e-02 2.13826850e-01 1.50815561e-01
      1.85679734e-01 2.52956390e-01 1.97229803e-01 -1.64429501e-01
      1.25876412e-01 3.71781558e-01 4.85841893e-02 -2.62728691e-01
      6.33418858e-02 -1.15111694e-01 -3.53666246e-02 5.49657308e-02
      2.89744020e-01 5.29719107e-02 8.71097222e-02 3.68648022e-01
      1.78762823e-01 -1.13842405e-01 -4.68878150e-02 1.94352195e-02
      2.41594296e-02 -2.74763733e-01 -2.39990979e-01 1.89270452e-02
      1.34492904e-01 1.86499402e-01 -2.31421635e-01 2.30981532e-04
      1.32492930e-01 -4.38127406e-02 -5.62684573e-02 -6.85150921e-02
      -6.03549220e-02 -1.43024459e-01 -5.06301373e-02 -8.14811438e-02
      -2.08878815e-02 7.95289204e-02 -5.87306023e-02 -4.21845093e-02
      -9.13763866e-02 4.08446454e-02 -7.16902912e-02 6.15694597e-02
      -8.10775384e-02 -1.53609410e-01 2.87548779e-03 -2.80305266e-01
      3.14684166e-03 -4.01530676e-02 -1.65573973e-02 -5.05710356e-02
      1.57171600e-02 -5.03538400e-02 -1.15602784e-01 8.64789709e-02
      4.00637418e-01 -6.45135343e-02 2.78028194e-02 -1.68741897e-01
      1.84270442e-02 -1.13213643e-01 -2.90969387e-02 2.42830478e-02
      -1.05204292e-01 9.97171104e-02 -2.47743316e-02 -1.29881054e-01
      -5.56341633e-02 8.35965276e-02 4.47565466e-02 -3.40125680e-01
      -7.37082586e-03 -7.88317472e-02 2.44705714e-02 5.88413328e-02
      2.47137949e-01 -1.63951322e-01 1.88648269e-01 -4.11672443e-02</_>
    <_>
      -5.84476814e-02 1.27406446e-02 6.20307550e-02 -1.41478375e-01
      1.63574621e-01 4.66478392e-02 -3.47170457e-02 2.14248270e-01
      1.13582924e-01 1.46039739e-01 -4.12533842e-02 -1.61812524e-03
      -7.77396262e-02 2.92246100e-02 5.52014038e-02 1.05109595e-01
      -1.21167675e-01 -2.40389407e-02 3.76733467e-02 3.31073883e-03
      1.27406508e-01 -1.65676102e-01 1.91051140e-01 -1.11147657e-01
      -1.01710632e-01 2.36449558e-02 -9.62310135e-02 2.19876304e-01
      -1.41174570e-01 -2.53734998e-02 9.80687737e-02 -7.51890242e-02
      7.83208013e-02 -1.16010448e-02 -5.47626205e-02 3.04080546e-02
      1.48548916e-01 5.27549274e-02 -3.00759822e-01 -4.16233949e-02
      -4.70084213e-02 -9.70291533e-03 4.93533164e-03 2.68339574e-01
      -1.47179365e-01 1.47149280e-01 -3.62519138e-02 -2.94525474e-02
      1.18400849e-01 -9.57129151e-02 -7.98889622e-02 -2.19647661e-02
      -1.19154714e-01 -1.78235039e-01 1.35412484e-01 4.51064706e-02
      -1.57068670e-01 -1.19186930e-01 -2.39771139e-02 -7.36185908e-02
      5.64852841e-02 2.17749491e-01 4.75347824e-02 -2.19841644e-01
      -8.34573358e-02 -4.88461629e-02 -1.05581759e-02 -6.54217675e-02
      6.39800401e-03 -5.89328222e-02 -4.64748852e-02 -9.75029916e-02
      -5.61668240e-02 -9.07332078e-02 -1.51067436e-01 7.78266275e-03
      9.08900723e-02 -4.55050990e-02 -5.06967492e-02 -1.50638357e-01
      -4.81204987e-02 9.88287572e-03 1.32387295e-01 1.16466783e-01
      2.27600977e-01 6.25530109e-02 4.18742001e-02 -1.28514737e-01
      -2.54157074e-02 2.10024849e-01 4.09486927e-02 -4.30393964e-02
      2.49570664e-02 1.37408320e-02 1.43041424e-02 -9.37585235e-02
      6.13703877e-02 1.65438637e-01 7.12645948e-02 -1.96578633e-02</_>
    <_>
